{"learner":{"attributes":{"scikit_learn":"{\"_estimator_type\": \"regressor\"}"},"feature_names":["Area","No. of Bedrooms","Resale","SwimmingPool","CarParking","School","LiftAvailable","MaintenanceStaff","Location","City"],"feature_types":["int","float","int","float","float","float","float","float","int","int"],"gradient_booster":{"model":{"gbtree_model_param":{"num_parallel_tree":"1","num_trees":"100"},"iteration_indptr":[0,1,2,3,4,5,6,7,8,9,10,11,12,13,14,15,16,17,18,19,20,21,22,23,24,25,26,27,28,29,30,31,32,33,34,35,36,37,38,39,40,41,42,43,44,45,46,47,48,49,50,51,52,53,54,55,56,57,58,59,60,61,62,63,64,65,66,67,68,69,70,71,72,73,74,75,76,77,78,79,80,81,82,83,84,85,86,87,88,89,90,91,92,93,94,95,96,97,98,99,100],"tree_info":[0,0,0,0,0,0,0,0,0,0,0,0,0,0,0,0,0,0,0,0,0,0,0,0,0,0,0,0,0,0,0,0,0,0,0,0,0,0,0,0,0,0,0,0,0,0,0,0,0,0,0,0,0,0,0,0,0,0,0,0,0,0,0,0,0,0,0,0,0,0,0,0,0,0,0,0,0,0,0,0,0,0,0,0,0,0,0,0,0,0,0,0,0,0,0,0,0,0,0,0],"trees":[{"base_weights":[-3.9401107E-6,-1.4766196E1,3.2350568E2,-3.5812065E1,5.6202187E1,2.57724E2,9.239321E2,-4.4092754E1,7.529671E0,4.378915E1,1.9462796E2,2.2371254E2,6.7269855E2,6.627258E2,1.9453717E3,-5.585422E1,-1.7882141E1,-5.0648567E1,4.5867783E1,3.014534E1,1.07775566E2,1.5366197E2,5.6725793E2,1.866121E2,3.021651E2,3.8397687E2,1.5775569E3,7.838436E2,3.333965E2,2.255557E3,5.9166912E1,-6.922447E1,-4.7972263E1,4.3062756E1,-2.0880957E1,-5.23519E1,7.223712E0,1.9442772E1,8.3275154E1,4.8409054E1,2.3383534E0,1.3954008E2,6.0307323E1,1.1448389E2,2.7129788E2,2.5020506E2,7.341403E2,1.1801153E2,1.7889767E2,3.1893347E2,5.46543E1,1.4641896E2,2.5190147E2,2.0988924E2,5.788892E2,3.5106152E2,5.6227136E2,1.1364328E2,3.4889217E1,7.8625037E2,1.1916692E2,-2.17337E1,-1.8340267E1,-1.5464357E1,-1.0270622E1,1.8519882E1,-1.2202547E1,-7.874237E0,-2.0815046E-1,-1.95374E1,-1.4583004E1,1.1861521E1,-7.8884797E0,4.477191E0,3.0971275E1,4.704578E1,2.0170326E1,4.1164007E0,1.8627409E1,-6.8179684E0,2.8928595E0,4.022845E1,1.4916692E2,1.9251513E1,-1.3852929E0,2.3406456E1,5.9293335E1,1.0214768E2,6.3995205E1,3.1789217E1,8.8750374E1,4.296691E1,2.39429E2,3.0395424E1,5.7283924E1,8.7663925E1,1.243457E2,1.3626692E2,5.3685623E1,6.958922E1,1.7939767E2],"categories":[],"categories_nodes":[],"categories_segments":[],"categories_sizes":[],"default_left":[0,0,0,0,0,0,0,0,0,0,0,0,0,0,0,0,0,0,0,0,0,0,0,0,0,0,0,0,0,0,0,0,0,0,0,0,0,0,0,0,0,0,0,0,0,0,0,0,0,0,0,0,0,0,0,0,0,0,0,0,0,0,0,0,0,0,0,0,0,0,0,0,0,0,0,0,0,0,0,0,0,0,0,0,0,0,0,0,0,0,0,0,0,0,0,0,0,0,0,0,0],"id":0,"left_children":[1,3,5,7,9,11,13,15,17,19,21,23,25,27,29,31,33,35,37,39,41,43,45,47,49,51,53,55,57,59,-1,61,63,65,67,69,71,73,75,77,79,81,83,85,87,89,91,-1,93,95,-1,-1,97,-1,-1,-1,99,-1,-1,-1,-1,-1,-1,-1,-1,-1,-1,-1,-1,-1,-1,-1,-1,-1,-1,-1,-1,-1,-1,-1,-1,-1,-1,-1,-1,-1,-1,-1,-1,-1,-1,-1,-1,-1,-1,-1,-1,-1,-1,-1,-1],"loss_changes":[3.589398E7,1.0734961E7,1.2716912E7,1.989711E6,2.8163355E6,4.041334E6,7.248558E6,1.433714E6,1.9874181E6,1.315009E6,1.9736305E6,7.46945E5,5.141803E6,8.15636E5,2.808652E6,3.35172E5,2.646255E5,3.5274E4,5.292001E5,6.326789E5,3.9115325E5,5.35817E5,5.041515E5,2.32683E5,1.16935E5,1.245065E5,1.95446E5,9.6856E5,4.4680125E4,2.352982E6,0E0,2.65565E4,9.7649E4,1.0882233E5,1.4904962E5,1.32754375E4,1.295425E4,1.1811338E5,2.5135E5,3.5605338E5,9.084717E4,2.41058E5,2.7392938E4,2.6960938E5,4.772475E4,8.1420312E3,1.88037E5,0E0,1.5358E5,7.03705E4,0E0,0E0,6.630825E4,0E0,0E0,0E0,2.64715E4,0E0,0E0,0E0,0E0,0E0,0E0,0E0,0E0,0E0,0E0,0E0,0E0,0E0,0E0,0E0,0E0,0E0,0E0,0E0,0E0,0E0,0E0,0E0,0E0,0E0,0E0,0E0,0E0,0E0,0E0,0E0,0E0,0E0,0E0,0E0,0E0,0E0,0E0,0E0,0E0,0E0,0E0,0E0,0E0],"parents":[2147483647,0,0,1,1,2,2,3,3,4,4,5,5,6,6,7,7,8,8,9,9,10,10,11,11,12,12,13,13,14,14,15,15,16,16,17,17,18,18,19,19,20,20,21,21,22,22,23,23,24,24,25,25,26,26,27,27,28,28,29,29,31,31,32,32,33,33,34,34,35,35,36,36,37,37,38,38,39,39,40,40,41,41,42,42,43,43,44,44,45,45,46,46,48,48,49,49,52,52,56,56],"right_children":[2,4,6,8,10,12,14,16,18,20,22,24,26,28,30,32,34,36,38,40,42,44,46,48,50,52,54,56,58,60,-1,62,64,66,68,70,72,74,76,78,80,82,84,86,88,90,92,-1,94,96,-1,-1,98,-1,-1,-1,100,-1,-1,-1,-1,-1,-1,-1,-1,-1,-1,-1,-1,-1,-1,-1,-1,-1,-1,-1,-1,-1,-1,-1,-1,-1,-1,-1,-1,-1,-1,-1,-1,-1,-1,-1,-1,-1,-1,-1,-1,-1,-1,-1,-1],"split_conditions":[2.7E3,1.6E3,4.977E3,5E0,5E0,5E0,5E0,1.241E3,2E0,2.2E3,6.02E2,3.638E3,6.02E2,3E0,6E0,8.97E2,3.6E1,7.01E2,1.165E3,3E0,3E0,1.95E3,1.745E3,3.6E1,6.02E2,1.88E2,2.936E3,1E0,6E0,3.37E2,5.9166912E1,8E2,1E0,3E0,1E0,5.05E2,7.15E2,3E0,2.47E2,1E0,1.67E3,6.87E2,6.34E2,3.08E2,1.88E2,6.54E2,1E0,1.1801153E2,2.807E3,4.35E2,5.46543E1,1.4641896E2,4E0,2.0988924E2,5.788892E2,3.5106152E2,8.6E1,1.1364328E2,3.4889217E1,7.8625037E2,1.1916692E2,-2.17337E1,-1.8340267E1,-1.5464357E1,-1.0270622E1,1.8519882E1,-1.2202547E1,-7.874237E0,-2.0815046E-1,-1.95374E1,-1.4583004E1,1.1861521E1,-7.8884797E0,4.477191E0,3.0971275E1,4.704578E1,2.0170326E1,4.1164007E0,1.8627409E1,-6.8179684E0,2.8928595E0,4.022845E1,1.4916692E2,1.9251513E1,-1.3852929E0,2.3406456E1,5.9293335E1,1.0214768E2,6.3995205E1,3.1789217E1,8.8750374E1,4.296691E1,2.39429E2,3.0395424E1,5.7283924E1,8.7663925E1,1.243457E2,1.3626692E2,5.3685623E1,6.958922E1,1.7939767E2],"split_indices":[0,0,0,9,9,9,9,0,1,0,8,0,8,9,1,0,8,8,0,9,9,0,0,8,8,8,0,6,1,8,0,0,2,9,2,0,8,1,8,9,0,8,8,8,8,8,2,0,0,8,0,0,1,0,0,0,8,0,0,0,0,0,0,0,0,0,0,0,0,0,0,0,0,0,0,0,0,0,0,0,0,0,0,0,0,0,0,0,0,0,0,0,0,0,0,0,0,0,0,0,0],"split_type":[0,0,0,0,0,0,0,0,0,0,0,0,0,0,0,0,0,0,0,0,0,0,0,0,0,0,0,0,0,0,0,0,0,0,0,0,0,0,0,0,0,0,0,0,0,0,0,0,0,0,0,0,0,0,0,0,0,0,0,0,0,0,0,0,0,0,0,0,0,0,0,0,0,0,0,0,0,0,0,0,0,0,0,0,0,0,0,0,0,0,0,0,0,0,0,0,0,0,0,0,0],"sum_hessian":[7.512E3,7.185E3,3.27E2,5.542E3,1.643E3,2.96E2,3.1E1,4.653E3,8.89E2,1.509E3,1.34E2,2.75E2,2.1E1,2.6E1,5E0,3.211E3,1.442E3,3.53E2,5.36E2,1.245E3,2.64E2,1.22E2,1.2E1,1.89E2,8.6E1,1.7E1,4E0,1.8E1,8E0,4E0,1E0,1.188E3,2.023E3,6.7E1,1.375E3,3.43E2,1E1,3.15E2,2.21E2,7.51E2,4.94E2,1.57E2,1.07E2,9.3E1,2.9E1,5E0,7E0,5E0,1.84E2,7.4E1,1.2E1,8E0,9E0,2E0,2E0,5E0,1.3E1,6E0,2E0,3E0,1E0,8.44E2,3.44E2,1.603E3,4.2E2,5.5E1,1.2E1,1.086E3,2.89E2,7.4E1,2.69E2,5E0,5E0,3E2,1.5E1,3.8E1,1.83E2,2.13E2,5.38E2,1.11E2,3.83E2,1.56E2,1E0,1.01E2,6E0,6.6E1,2.7E1,1.1E1,1.8E1,2E0,3E0,1E0,6E0,2.6E1,1.58E2,6.1E1,1.3E1,1E0,8E0,2E0,1.1E1],"tree_param":{"num_deleted":"0","num_feature":"10","num_nodes":"101","size_leaf_vector":"1"}},{"base_weights":[5.581587E-1,-1.3346095E1,1.8340721E2,-3.0250227E1,2.1558372E1,1.4995998E2,7.002889E2,-3.5982414E1,-2.4763067E0,1.2651477E1,1.09714455E2,1.2925815E2,4.4868472E2,4.916333E2,1.5225243E3,-4.5619324E1,-2.7209553E1,-3.553916E1,2.3366358E1,4.1678086E-1,3.4983818E1,8.3097824E1,3.715072E2,1.03957794E2,2.0623529E2,2.8741727E2,1.2620455E3,3.3080212E2,6.651054E2,1.7599733E3,5.0291878E1,-5.2681377E1,-4.245862E1,-2.245302E1,-3.6613457E1,-3.674552E1,5.4177856E0,1.5283321E1,7.225726E1,-8.144665E0,2.1965363E1,4.723768E1,1.4041661E1,1.7687155E2,6.0177013E1,2.2208795E2,5.491977E2,8.984348E1,9.742248E1,2.2103201E2,1.4708372E2,1.1674947E2,2.0927055E2,1.6791138E2,4.631114E2,1.8385596E2,4.2466516E2,8.063721E2,1.8097913E2,6.0934406E2,1.0129188E2,-1.6165386E1,-8.7680645E0,-1.3446061E1,-1.1225529E1,-8.930954E0,4.317703E0,-1.23655615E1,-7.5720162E0,-5.507632E0,-1.15912485E1,8.896141E0,-5.9163594E0,2.6823324E1,2.988335E0,1.6395353E1,3.531544E1,1.4551307E1,-3.0647569E0,9.181074E0,-1.0749507E1,1.2583267E1,2.6188732E1,8.875138E0,5.279936E-1,4.840669E1,8.968006E1,1.03712E1,3.1448414E1,4.4193604E1,1.0044354E2,2.3276352E2,7.7404106E1,2.4914803E1,3.884533E1,6.030814E1,1.2885439E2,2.6996733E1,4.9014698E1,3.8162693E1,9.601553E1,6.7542145E1,2.5885891E1,2.712042E1,1.3654439E2,5.5671375E1,2.8717007E2,6.543597E1,1.0433531E1],"categories":[],"categories_nodes":[],"categories_segments":[],"categories_sizes":[],"default_left":[0,0,0,0,0,0,0,0,0,0,0,0,0,0,0,0,0,0,0,0,0,0,0,0,0,0,0,0,0,0,0,0,0,0,0,0,0,0,0,0,0,0,0,0,0,0,0,0,0,0,0,0,0,0,0,0,0,0,0,0,0,0,0,0,0,0,0,0,0,0,0,0,0,0,0,0,0,0,0,0,0,0,0,0,0,0,0,0,0,0,0,0,0,0,0,0,0,0,0,0,0,0,0,0,0,0,0,0,0],"id":1,"left_children":[1,3,5,7,9,11,13,15,17,19,21,23,25,27,29,31,33,35,37,39,41,43,45,47,49,51,53,55,57,59,-1,61,63,65,67,69,71,73,75,77,79,81,83,85,87,89,91,-1,93,95,97,-1,99,-1,-1,101,103,105,107,-1,-1,-1,-1,-1,-1,-1,-1,-1,-1,-1,-1,-1,-1,-1,-1,-1,-1,-1,-1,-1,-1,-1,-1,-1,-1,-1,-1,-1,-1,-1,-1,-1,-1,-1,-1,-1,-1,-1,-1,-1,-1,-1,-1,-1,-1,-1,-1,-1,-1],"loss_changes":[1.9103346E7,4.120829E6,9.075056E6,7.489715E5,1.788076E6,3.034077E6,4.741524E6,3.28478E5,6.895029E5,5.658435E5,1.4254492E6,8.919605E5,3.8346625E6,5.332735E5,1.635255E6,3.921325E4,9.0606E4,1.768975E4,1.7791534E5,2.4720703E5,1.8744088E5,3.99886E5,3.8248725E5,4.2443875E5,6.81435E4,1.41194E5,1.250845E5,1.4260788E5,6.747545E5,1.242701E6,0E0,1.4511375E4,1.3654E4,3.6707244E5,3.4836812E4,1.12575E4,7.286765E3,1.5297344E5,4.4791406E4,1.1301584E5,1.913159E5,9.43035E4,5.186825E4,2.1839875E4,1.7359519E5,5.1826562E4,3.27859E5,0E0,1.48233E5,2.89016E5,9.4919375E3,0E0,1.2292244E5,0E0,0E0,1.2798375E4,5.055775E4,6.652595E5,1.4134148E4,0E0,0E0,0E0,0E0,0E0,0E0,0E0,0E0,0E0,0E0,0E0,0E0,0E0,0E0,0E0,0E0,0E0,0E0,0E0,0E0,0E0,0E0,0E0,0E0,0E0,0E0,0E0,0E0,0E0,0E0,0E0,0E0,0E0,0E0,0E0,0E0,0E0,0E0,0E0,0E0,0E0,0E0,0E0,0E0,0E0,0E0,0E0,0E0,0E0,0E0],"parents":[2147483647,0,0,1,1,2,2,3,3,4,4,5,5,6,6,7,7,8,8,9,9,10,10,11,11,12,12,13,13,14,14,15,15,16,16,17,17,18,18,19,19,20,20,21,21,22,22,23,23,24,24,25,25,26,26,27,27,28,28,29,29,31,31,32,32,33,33,34,34,35,35,36,36,37,37,38,38,39,39,40,40,41,41,42,42,43,43,44,44,45,45,46,46,48,48,49,49,50,50,52,52,55,55,56,56,57,57,58,58],"right_children":[2,4,6,8,10,12,14,16,18,20,22,24,26,28,30,32,34,36,38,40,42,44,46,48,50,52,54,56,58,60,-1,62,64,66,68,70,72,74,76,78,80,82,84,86,88,90,92,-1,94,96,98,-1,100,-1,-1,102,104,106,108,-1,-1,-1,-1,-1,-1,-1,-1,-1,-1,-1,-1,-1,-1,-1,-1,-1,-1,-1,-1,-1,-1,-1,-1,-1,-1,-1,-1,-1,-1,-1,-1,-1,-1,-1,-1,-1,-1,-1,-1,-1,-1,-1,-1,-1,-1,-1,-1,-1,-1],"split_conditions":[2.282E3,1.4E3,4.977E3,5E0,5E0,5E0,5E0,1.02E3,2E0,1.8E3,6.02E2,3.494E3,6.02E2,5E0,6E0,6.8E2,3E0,7.01E2,3E0,1E0,3E0,2.47E2,1.745E3,3.6E1,5.22E2,1.88E2,2.936E3,1E0,3E0,3.37E2,5.0291878E1,6.81E2,4.71E2,2E0,1E0,1.4E2,7.15E2,1E0,5.01E2,3.6E1,1E0,6.34E2,3.08E2,1.88E2,3.08E2,7.01E2,1E0,8.984348E1,2.936E3,4.35E2,2E0,1.1674947E2,2.92E2,1.6791138E2,4.631114E2,4.19E2,1E0,8.6E1,3.24E2,6.0934406E2,1.0129188E2,-1.6165386E1,-8.7680645E0,-1.3446061E1,-1.1225529E1,-8.930954E0,4.317703E0,-1.23655615E1,-7.5720162E0,-5.507632E0,-1.15912485E1,8.896141E0,-5.9163594E0,2.6823324E1,2.988335E0,1.6395353E1,3.531544E1,1.4551307E1,-3.0647569E0,9.181074E0,-1.0749507E1,1.2583267E1,2.6188732E1,8.875138E0,5.279936E-1,4.840669E1,8.968006E1,1.03712E1,3.1448414E1,4.4193604E1,1.0044354E2,2.3276352E2,7.7404106E1,2.4914803E1,3.884533E1,6.030814E1,1.2885439E2,2.6996733E1,4.9014698E1,3.8162693E1,9.601553E1,6.7542145E1,2.5885891E1,2.712042E1,1.3654439E2,5.5671375E1,2.8717007E2,6.543597E1,1.0433531E1],"split_indices":[0,0,0,9,9,9,9,0,1,0,8,0,8,1,1,0,9,8,1,2,9,8,0,8,8,8,0,4,9,8,0,8,8,9,3,8,8,4,8,8,5,8,8,8,8,8,7,0,0,8,9,0,8,0,0,8,3,8,8,0,0,0,0,0,0,0,0,0,0,0,0,0,0,0,0,0,0,0,0,0,0,0,0,0,0,0,0,0,0,0,0,0,0,0,0,0,0,0,0,0,0,0,0,0,0,0,0,0,0],"split_type":[0,0,0,0,0,0,0,0,0,0,0,0,0,0,0,0,0,0,0,0,0,0,0,0,0,0,0,0,0,0,0,0,0,0,0,0,0,0,0,0,0,0,0,0,0,0,0,0,0,0,0,0,0,0,0,0,0,0,0,0,0,0,0,0,0,0,0,0,0,0,0,0,0,0,0,0,0,0,0,0,0,0,0,0,0,0,0,0,0,0,0,0,0,0,0,0,0,0,0,0,0,0,0,0,0,0,0,0,0],"sum_hessian":[7.512E3,6.982E3,5.3E2,4.704E3,2.278E3,4.99E2,3.1E1,3.899E3,8.05E2,2.07E3,2.08E2,4.68E2,3.1E1,2.6E1,5E0,1.856E3,2.043E3,3.53E2,4.52E2,1.338E3,7.32E2,1.9E2,1.8E1,3.54E2,1.14E2,2.7E1,4E0,1.5E1,1.1E1,4E0,1E0,5.69E2,1.287E3,1.359E3,6.84E2,3.43E2,1E1,3.89E2,6.3E1,9.58E2,3.8E2,4.61E2,2.71E2,3.6E1,1.54E2,1.1E1,7E0,1E1,3.44E2,8.9E1,2.5E1,1E1,1.7E1,2E0,2E0,7E0,8E0,8E0,3E0,3E0,1E0,5.4E2,2.9E1,8.71E2,4.16E2,1.134E3,2.25E2,4.85E2,1.99E2,3.3E1,3.1E2,5E0,5E0,2.5E1,3.64E2,4.7E1,1.6E1,3.3E1,9.25E2,3.31E2,4.9E1,4.09E2,5.2E1,1.19E2,1.52E2,3.4E1,2E0,9.9E1,5.5E1,8E0,3E0,3E0,4E0,2.4E2,1.04E2,8.3E1,6E0,7E0,1.8E1,1.1E1,6E0,4E0,3E0,1E0,7E0,2E0,6E0,2E0,1E0],"tree_param":{"num_deleted":"0","num_feature":"10","num_nodes":"109","size_leaf_vector":"1"}},{"base_weights":[8.4638995E-1,-6.646224E0,1.8355193E2,-1.609242E1,3.743877E1,1.4229433E2,6.4520917E2,-2.4923285E1,-2.5056934E0,2.9273485E1,1.4453235E2,1.16917725E2,3.691731E2,2.9586865E2,1.3069066E3,-2.8892328E1,-8.064775E0,-7.8216424E0,4.1832104E1,1.933408E2,2.743022E1,9.020634E1,3.427924E2,1.5495415E2,9.563769E1,2.476298E2,5.0046637E2,2.0243076E2,1.6468025E2,7.32265E1,4.8614938E2,-3.3718903E1,-2.4244081E1,-2.6270767E1,9.79818E0,-2.301E0,-1.8082972E1,3.580803E1,1.7001118E2,6.524779E1,4.033725E1,1.7445671E1,4.830169E1,1.7556725E2,6.062992E1,3.9419968E0,3.808021E2,1.19430725E2,2.7580478E2,6.2098408E1,1.2011717E2,1.4757603E2,1.9854912E2,5.802352E2,2.0324427E1,2.328784E2,3.9489868E0,-1.2014348E1,-9.714243E0,-6.2182455E0,-9.519186E0,-8.152982E0,1.9290135E0,2.7640934E1,2.126863E0,-3.1122918E0,8.513994E0,-7.328588E0,-2.3960738E0,2.4319777E1,6.5010448E0,5.624008E1,1.8292063E1,2.4956408E0,1.5656122E1,1.7402276E0,9.161542E0,2.007256E1,7.1291003E0,3.7950817E1,7.037905E1,1.2800076E1,4.4310024E1,1.3530515E2,3.6624775E1,3.08595E1,6.986588E1,1.0423534E2,1.8798761E1,1.1705766E1,2.5616274E1,3.1968592E1,4.9076347E1,4.8551414E1,1.0687561E2,4.45371E1,2.0088681E2,1.01555534E2,5.3369564E1],"categories":[],"categories_nodes":[],"categories_segments":[],"categories_sizes":[],"default_left":[0,0,0,0,0,0,0,0,0,0,0,0,0,0,0,0,0,0,0,0,0,0,0,0,0,0,0,0,0,0,0,0,0,0,0,0,0,0,0,0,0,0,0,0,0,0,0,0,0,0,0,0,0,0,0,0,0,0,0,0,0,0,0,0,0,0,0,0,0,0,0,0,0,0,0,0,0,0,0,0,0,0,0,0,0,0,0,0,0,0,0,0,0,0,0,0,0,0,0],"id":2,"left_children":[1,3,5,7,9,11,13,15,17,19,21,23,25,27,29,31,33,35,37,39,41,43,45,47,49,51,53,55,-1,-1,-1,57,59,61,63,65,67,69,71,-1,73,75,77,79,81,-1,83,85,87,89,91,-1,93,95,-1,97,-1,-1,-1,-1,-1,-1,-1,-1,-1,-1,-1,-1,-1,-1,-1,-1,-1,-1,-1,-1,-1,-1,-1,-1,-1,-1,-1,-1,-1,-1,-1,-1,-1,-1,-1,-1,-1,-1,-1,-1,-1,-1,-1],"loss_changes":[1.0286083E7,3.0064335E6,5.546064E6,7.1323375E5,1.109818E6,1.52861E6,5.161111E6,2.408515E5,5.525664E5,3.530635E5,9.384391E5,1.851065E5,3.0693075E5,2.9085925E5,2.27078E6,6.460325E4,2.2400384E5,1.1852502E5,1.877245E5,3.926597E4,2.4360138E5,1.7113156E5,2.33066E5,3.40554E5,1.2472575E5,9.416869E4,3.748995E5,7.761306E4,0E0,0E0,0E0,1.0796625E4,3.8543438E4,1.02756875E4,7.69593E4,3.3765762E5,4.6701297E4,1.5244731E5,9.506125E3,0E0,7.041045E2,1.21032125E5,1.71452E5,2.2455562E4,7.9720375E4,0E0,2.537605E5,1.05727875E5,2.6837425E5,3.4292938E4,3.6779E4,0E0,2.91865E4,2.8654525E5,0E0,9.4749375E3,0E0,0E0,0E0,0E0,0E0,0E0,0E0,0E0,0E0,0E0,0E0,0E0,0E0,0E0,0E0,0E0,0E0,0E0,0E0,0E0,0E0,0E0,0E0,0E0,0E0,0E0,0E0,0E0,0E0,0E0,0E0,0E0,0E0,0E0,0E0,0E0,0E0,0E0,0E0,0E0,0E0,0E0,0E0],"parents":[2147483647,0,0,1,1,2,2,3,3,4,4,5,5,6,6,7,7,8,8,9,9,10,10,11,11,12,12,13,13,14,14,15,15,16,16,17,17,18,18,19,19,20,20,21,21,22,22,23,23,24,24,25,25,26,26,27,27,31,31,32,32,33,33,34,34,35,35,36,36,37,37,38,38,40,40,41,41,42,42,43,43,44,44,46,46,47,47,48,48,49,49,50,50,52,52,53,53,55,55],"right_children":[2,4,6,8,10,12,14,16,18,20,22,24,26,28,30,32,34,36,38,40,42,44,46,48,50,52,54,56,-1,-1,-1,58,60,62,64,66,68,70,72,-1,74,76,78,80,82,-1,84,86,88,90,92,-1,94,96,-1,98,-1,-1,-1,-1,-1,-1,-1,-1,-1,-1,-1,-1,-1,-1,-1,-1,-1,-1,-1,-1,-1,-1,-1,-1,-1,-1,-1,-1,-1,-1,-1,-1,-1,-1,-1,-1,-1,-1,-1,-1,-1,-1,-1],"split_conditions":[2.807E3,1.7E3,5E0,1.2E3,5E0,4.977E3,3.638E3,5E0,5E0,1.7E1,4.35E2,2E0,5E0,6.02E2,2.62E2,9.35E2,7.21E2,3E0,6.67E2,1E0,2.05E3,1.88E2,1E0,1E0,3.34E3,1E0,6E0,1E0,1.6468025E2,7.32265E1,4.8614938E2,5.74E2,3E0,7.01E2,6.8E1,2E0,1E0,2.69E2,7.29E2,6.524779E1,1.766E3,5.11E2,3E0,1E0,3.08E2,3.9419968E0,1E0,4.4E3,4.146E3,1E0,4.4E3,1.4757603E2,4.29E2,8.6E1,2.0324427E1,3E1,3.9489868E0,-1.2014348E1,-9.714243E0,-6.2182455E0,-9.519186E0,-8.152982E0,1.9290135E0,2.7640934E1,2.126863E0,-3.1122918E0,8.513994E0,-7.328588E0,-2.3960738E0,2.4319777E1,6.5010448E0,5.624008E1,1.8292063E1,2.4956408E0,1.5656122E1,1.7402276E0,9.161542E0,2.007256E1,7.1291003E0,3.7950817E1,7.037905E1,1.2800076E1,4.4310024E1,1.3530515E2,3.6624775E1,3.08595E1,6.986588E1,1.0423534E2,1.8798761E1,1.1705766E1,2.5616274E1,3.1968592E1,4.9076347E1,4.8551414E1,1.0687561E2,4.45371E1,2.0088681E2,1.01555534E2,5.3369564E1],"split_indices":[0,0,9,0,9,0,0,9,9,8,8,9,1,8,8,0,0,9,8,4,0,8,2,9,0,6,1,5,0,0,0,0,9,8,8,9,3,8,8,0,0,8,9,2,8,0,5,0,0,2,0,0,8,8,0,8,0,0,0,0,0,0,0,0,0,0,0,0,0,0,0,0,0,0,0,0,0,0,0,0,0,0,0,0,0,0,0,0,0,0,0,0,0,0,0,0,0,0,0],"split_type":[0,0,0,0,0,0,0,0,0,0,0,0,0,0,0,0,0,0,0,0,0,0,0,0,0,0,0,0,0,0,0,0,0,0,0,0,0,0,0,0,0,0,0,0,0,0,0,0,0,0,0,0,0,0,0,0,0,0,0,0,0,0,0,0,0,0,0,0,0,0,0,0,0,0,0,0,0,0,0,0,0,0,0,0,0,0,0,0,0,0,0,0,0,0,0,0,0,0,0],"sum_hessian":[7.512E3,7.217E3,2.95E2,5.944E3,1.273E3,2.72E2,2.3E1,3.602E3,2.342E3,1.184E3,8.9E1,2.46E2,2.6E1,1.6E1,7E0,2.915E3,6.87E2,2.092E3,2.5E2,1.2E1,1.172E3,7.1E1,1.8E1,8.6E1,1.6E2,1.5E1,1.1E1,1.3E1,3E0,2E0,5E0,1.427E3,1.488E3,3.4E2,3.47E2,1.361E3,7.31E2,2.4E2,1E1,1E1,2E0,7.94E2,3.78E2,1.7E1,5.4E1,2E0,1.6E1,6.8E1,1.8E1,6.9E1,9.1E1,1E0,1.4E1,9E0,2E0,1.1E1,2E0,2.44E2,1.183E3,1.015E3,4.73E2,3.31E2,9E0,1E1,3.37E2,1.078E3,2.83E2,4.48E2,2.83E2,5.6E1,1.84E2,8E0,2E0,1E0,1E0,4.21E2,3.73E2,2.14E2,1.64E2,1.1E1,6E0,4.6E1,8E0,1.2E1,4E0,6.1E1,7E0,1.3E1,5E0,3.6E1,3.3E1,7.2E1,1.9E1,1.3E1,1E0,2E0,7E0,2E0,9E0],"tree_param":{"num_deleted":"0","num_feature":"10","num_nodes":"99","size_leaf_vector":"1"}},{"base_weights":[9.0442973E-1,-4.576169E0,1.3454651E2,-1.4844937E1,1.7041004E1,1.0294257E2,4.8843518E2,-1.7810452E1,-3.031769E-1,1.2371731E1,6.713783E1,8.322753E1,2.7948602E2,2.2614066E2,9.847566E2,-2.2166073E1,-1.2583495E1,-1.8031555E1,1.2854369E1,5.1113687E0,3.4252766E1,5.784553E1,3.5485052E2,6.0486694E1,1.0880409E2,3.34636E2,1.3200432E2,1.5304968E2,1.2762718E2,5.8581196E1,3.6461206E2,-2.5591997E1,-2.0039928E1,-1.4664393E1,-3.62346E0,-9.8903885E0,-1.6131077E1,7.3842072E0,3.8732193E1,1.2685129E1,-6.650003E0,1.4829396E2,3.1324602E1,3.8516182E1,1.2437777E2,6.2529293E1,1.6304227E2,6.8696465E1,2.4058153E1,1.5992052E2,9.635937E1,2.026812E2,4.5873224E2,6.693158E1,4.6015625E1,9.445832E1,1.1638257E2,-7.8446736E0,-4.209976E0,-8.824362E0,-5.544112E0,-5.912212E0,-3.8176713E0,-1.050715E1,9.3764704E-1,-8.262233E0,-3.8317382E0,1.777043E1,1.1162091E0,9.874334E0,3.687185E1,-1.4923224E0,6.7314596E0,-4.192956E0,5.087811E-1,2.1495739E1,5.2318645E1,1.3388331E1,3.7106543E0,5.0515556E1,9.874588E0,2.9808762E1,7.8623405E1,1.5894125E1,2.8542997E1,-2.109122E1,1.1826891E1,8.0976456E1,2.9377607E1,2.0756954E1,3.3110634E1,2.1437147E1,9.003752E1,3.562968E1,1.6166972E2,5.8198357E0,2.2892744E1,9.341911E1,2.2254484E1],"categories":[],"categories_nodes":[],"categories_segments":[],"categories_sizes":[],"default_left":[0,0,0,0,0,0,0,0,0,0,0,0,0,0,0,0,0,0,0,0,0,0,0,0,0,0,0,0,0,0,0,0,0,0,0,0,0,0,0,0,0,0,0,0,0,0,0,0,0,0,0,0,0,0,0,0,0,0,0,0,0,0,0,0,0,0,0,0,0,0,0,0,0,0,0,0,0,0,0,0,0,0,0,0,0,0,0,0,0,0,0,0,0,0,0,0,0,0,0],"id":3,"left_children":[1,3,5,7,9,11,13,15,17,19,21,23,25,27,29,31,33,35,37,39,41,43,45,47,49,51,53,55,-1,-1,-1,57,59,61,63,-1,65,67,69,71,73,75,77,79,81,-1,-1,83,85,87,89,91,93,95,-1,-1,97,-1,-1,-1,-1,-1,-1,-1,-1,-1,-1,-1,-1,-1,-1,-1,-1,-1,-1,-1,-1,-1,-1,-1,-1,-1,-1,-1,-1,-1,-1,-1,-1,-1,-1,-1,-1,-1,-1,-1,-1,-1,-1],"loss_changes":[5.503427E6,1.6025171E6,3.260264E6,2.1104238E5,5.430236E5,9.269325E5,2.901684E6,9.22675E4,1.938392E5,3.37888E5,5.08829E5,1.37082E5,1.75434E5,1.8250769E5,1.2192235E6,1.5628625E4,3.443997E4,9.516953E3,6.723614E4,1.4251978E5,1.7233831E5,2.4341225E5,5.2432312E4,3.8123656E4,5.7745E4,2.181505E5,2.2556094E3,4.6419844E4,0E0,0E0,0E0,5.0725625E3,1.9515375E4,1.4425156E4,7.4281305E4,0E0,1.1757602E4,7.481184E4,3.6599953E4,1.6769598E5,3.8362656E4,1.3510125E4,1.30072875E5,1.04292234E5,1.2207719E5,0E0,0E0,3.9848375E4,4.0467906E4,1.1677794E5,2.8523438E4,1.1921069E5,1.8128362E5,3.0258594E2,0E0,0E0,8.388742E4,0E0,0E0,0E0,0E0,0E0,0E0,0E0,0E0,0E0,0E0,0E0,0E0,0E0,0E0,0E0,0E0,0E0,0E0,0E0,0E0,0E0,0E0,0E0,0E0,0E0,0E0,0E0,0E0,0E0,0E0,0E0,0E0,0E0,0E0,0E0,0E0,0E0,0E0,0E0,0E0,0E0,0E0],"parents":[2147483647,0,0,1,1,2,2,3,3,4,4,5,5,6,6,7,7,8,8,9,9,10,10,11,11,12,12,13,13,14,14,15,15,16,16,17,17,18,18,19,19,20,20,21,21,22,22,23,23,24,24,25,25,26,26,27,27,31,31,32,32,33,33,34,34,36,36,37,37,38,38,39,39,40,40,41,41,42,42,43,43,44,44,47,47,48,48,49,49,50,50,51,51,52,52,53,53,56,56],"right_children":[2,4,6,8,10,12,14,16,18,20,22,24,26,28,30,32,34,36,38,40,42,44,46,48,50,52,54,56,-1,-1,-1,58,60,62,64,-1,66,68,70,72,74,76,78,80,82,-1,-1,84,86,88,90,92,94,96,-1,-1,98,-1,-1,-1,-1,-1,-1,-1,-1,-1,-1,-1,-1,-1,-1,-1,-1,-1,-1,-1,-1,-1,-1,-1,-1,-1,-1,-1,-1,-1,-1,-1,-1,-1,-1,-1,-1,-1,-1,-1,-1,-1,-1],"split_conditions":[2.807E3,1.45E3,5E0,5E0,5E0,4.977E3,3.638E3,1.09E3,2E0,1.97E3,7.07E2,3.494E3,3E0,6.02E2,2.62E2,8E2,1E0,4E2,3E0,3E0,2.5E1,1.85E3,2.014E3,1E0,1E0,5E0,1E0,1E0,1.2762718E2,5.8581196E1,3.6461206E2,6.72E2,1E0,1.16E3,1E0,-9.8903885E0,1E0,1E0,1.425E3,1E0,1E0,1E0,3E0,3E0,4.35E2,6.2529293E1,1.6304227E2,1E0,1E0,2E0,2.21E2,1E0,8.6E1,1E0,4.6015625E1,9.445832E1,2.936E3,-7.8446736E0,-4.209976E0,-8.824362E0,-5.544112E0,-5.912212E0,-3.8176713E0,-1.050715E1,9.3764704E-1,-8.262233E0,-3.8317382E0,1.777043E1,1.1162091E0,9.874334E0,3.687185E1,-1.4923224E0,6.7314596E0,-4.192956E0,5.087811E-1,2.1495739E1,5.2318645E1,1.3388331E1,3.7106543E0,5.0515556E1,9.874588E0,2.9808762E1,7.8623405E1,1.5894125E1,2.8542997E1,-2.109122E1,1.1826891E1,8.0976456E1,2.9377607E1,2.0756954E1,3.3110634E1,2.1437147E1,9.003752E1,3.562968E1,1.6166972E2,5.8198357E0,2.2892744E1,9.341911E1,2.2254484E1],"split_indices":[0,0,9,9,9,0,0,0,1,0,8,0,9,8,8,0,2,0,1,9,8,0,0,7,6,1,3,4,0,0,0,8,9,0,9,0,2,4,0,9,3,3,9,1,8,0,0,2,6,9,8,4,8,2,0,0,0,0,0,0,0,0,0,0,0,0,0,0,0,0,0,0,0,0,0,0,0,0,0,0,0,0,0,0,0,0,0,0,0,0,0,0,0,0,0,0,0,0,0],"split_type":[0,0,0,0,0,0,0,0,0,0,0,0,0,0,0,0,0,0,0,0,0,0,0,0,0,0,0,0,0,0,0,0,0,0,0,0,0,0,0,0,0,0,0,0,0,0,0,0,0,0,0,0,0,0,0,0,0,0,0,0,0,0,0,0,0,0,0,0,0,0,0,0,0,0,0,0,0,0,0,0,0,0,0,0,0,0,0,0,0,0,0,0,0,0,0,0,0,0,0],"sum_hessian":[7.512E3,7.217E3,2.95E2,4.893E3,2.324E3,2.72E2,2.3E1,4.064E3,8.29E2,2.127E3,1.97E2,2.46E2,2.6E1,1.6E1,7E0,2.215E3,1.849E3,3.53E2,4.76E2,1.598E3,5.29E2,1.92E2,5E0,1.32E2,1.14E2,1.8E1,8E0,1.3E1,3E0,2E0,5E0,8.44E2,1.371E3,1.5E3,3.49E2,3.8E1,3.15E2,3.94E2,8.2E1,9.72E2,6.26E2,1.2E1,5.17E2,1.5E2,4.2E1,4E0,1E0,1.07E2,2.5E1,2E1,9.4E1,1E1,8E0,3E0,5E0,1E0,1.2E1,8.04E2,4E1,1.93E2,1.178E3,4.14E2,1.086E3,6.1E1,2.88E2,7E1,2.45E2,2.5E1,3.69E2,7.8E1,4E0,3.46E2,6.26E2,3.33E2,2.93E2,4E0,8E0,3.03E2,2.14E2,5E0,1.45E2,3.7E1,5E0,6.9E1,3.8E1,3E0,2.2E1,6E0,1.4E1,3.4E1,6E1,5E0,5E0,2E0,6E0,1E0,2E0,1E0,1.1E1],"tree_param":{"num_deleted":"0","num_feature":"10","num_nodes":"99","size_leaf_vector":"1"}},{"base_weights":[8.7649745E-1,-4.307536E0,7.804332E1,-1.0510764E1,9.293152E0,6.1135395E1,2.8788715E2,-1.25303E1,-6.625734E-1,5.7085E0,4.6651676E1,5.12655E1,2.0984401E2,1.4779356E2,7.422288E2,-1.5528174E1,-8.828509E0,-9.21544E0,1.3845924E1,1.1004096E1,-2.6136785E0,3.8765053E1,2.8599063E2,7.02752E1,3.410496E1,2.780462E2,1.2665294E2,1.1277623E2,9.8911064E1,4.6864952E1,2.7345905E2,-1.45881195E1,-2.306588E1,-1.06865635E1,-1.4283645E0,1.27634E1,-1.227998E1,-4.0784597E0,2.959602E1,-3.5151477E0,1.8339014E1,-9.642702E0,3.2554219E0,3.1144587E1,1.4793651E2,1.5840753E2,1.3858592E2,5.00577E1,8.859587E1,1.1926516E1,5.3338078E1,3.0778025E1,3.37968E2,5.768571E1,1.0809126E2,1.5022841E2,5.1452698E1,-4.835703E0,-2.905684E0,-8.2351465E0,-6.4934087E0,-2.9478912E0,-6.3544674E0,-3.0360892E0,4.420446E0,-4.595365E0,1.2397011E1,-3.8740938E0,9.062983E0,6.7830615E0,-7.5346346E0,2.0192411E1,1.1688385E0,4.235693E-1,-6.8664618E0,2.025794E1,4.5555263E0,-4.059517E0,-7.4791324E-1,3.0892978E0,-1.6610296E0,2.2302023E1,5.146597E0,2.227945E1,1.4374875E2,5.3419437E1,1.1966785E1,1.9003748E1,-4.3912635E0,4.262605E1,1.6222841E1,1.9092161E1,1.7044685E0,2.0056896E1,8.817189E0,1.08240524E2,1.9869654E1,6.2685924E0,2.7298069E1,2.950487E1,9.7488174E1,2.7483839E1,4.624959E0],"categories":[],"categories_nodes":[],"categories_segments":[],"categories_sizes":[],"default_left":[0,0,0,0,0,0,0,0,0,0,0,0,0,0,0,0,0,0,0,0,0,0,0,0,0,0,0,0,0,0,0,0,0,0,0,0,0,0,0,0,0,0,0,0,0,0,0,0,0,0,0,0,0,0,0,0,0,0,0,0,0,0,0,0,0,0,0,0,0,0,0,0,0,0,0,0,0,0,0,0,0,0,0,0,0,0,0,0,0,0,0,0,0,0,0,0,0,0,0,0,0,0,0],"id":4,"left_children":[1,3,5,7,9,11,13,15,17,19,21,23,25,27,29,31,33,35,37,39,41,43,45,47,49,51,53,55,-1,-1,-1,57,59,61,63,65,67,69,71,73,75,77,79,81,83,85,-1,87,89,91,93,-1,95,97,-1,99,101,-1,-1,-1,-1,-1,-1,-1,-1,-1,-1,-1,-1,-1,-1,-1,-1,-1,-1,-1,-1,-1,-1,-1,-1,-1,-1,-1,-1,-1,-1,-1,-1,-1,-1,-1,-1,-1,-1,-1,-1,-1,-1,-1,-1,-1,-1],"loss_changes":[3.005802E6,5.9413394E5,1.660615E6,9.617381E4,2.9515525E5,6.335795E5,2.118066E6,4.4397188E4,1.0237713E5,8.878755E4,3.5321588E5,1.3233075E5,1.17977625E5,1.4117731E5,6.513055E5,1.536575E4,2.4707E4,3.5113996E4,8.65078E4,1.3116286E5,3.2374564E4,1.5179681E5,6.1522125E4,6.7792625E4,9.278064E4,1.12514875E5,2.048155E5,4.9687844E4,0E0,0E0,0E0,1.4651625E4,9.2628906E2,1.2765719E4,5.1006242E4,5.1961023E4,1.2667656E4,8.141654E4,1.5771648E5,3.9549414E4,1.2587394E5,9.892707E3,2.6557348E4,1.05681E5,2.5723872E5,4.5458438E3,0E0,8.2596625E4,1.7881231E5,3.2902445E4,3.5911156E4,0E0,3.815075E4,1.2803574E4,0E0,1.0401381E5,1.4507025E4,0E0,0E0,0E0,0E0,0E0,0E0,0E0,0E0,0E0,0E0,0E0,0E0,0E0,0E0,0E0,0E0,0E0,0E0,0E0,0E0,0E0,0E0,0E0,0E0,0E0,0E0,0E0,0E0,0E0,0E0,0E0,0E0,0E0,0E0,0E0,0E0,0E0,0E0,0E0,0E0,0E0,0E0,0E0,0E0,0E0,0E0],"parents":[2147483647,0,0,1,1,2,2,3,3,4,4,5,5,6,6,7,7,8,8,9,9,10,10,11,11,12,12,13,13,14,14,15,15,16,16,17,17,18,18,19,19,20,20,21,21,22,22,23,23,24,24,25,25,26,26,27,27,31,31,32,32,33,33,34,34,35,35,36,36,37,37,38,38,39,39,40,40,41,41,42,42,43,43,44,44,45,45,47,47,48,48,49,49,50,50,52,52,53,53,55,55,56,56],"right_children":[2,4,6,8,10,12,14,16,18,20,22,24,26,28,30,32,34,36,38,40,42,44,46,48,50,52,54,56,-1,-1,-1,58,60,62,64,66,68,70,72,74,76,78,80,82,84,86,-1,88,90,92,94,-1,96,98,-1,100,102,-1,-1,-1,-1,-1,-1,-1,-1,-1,-1,-1,-1,-1,-1,-1,-1,-1,-1,-1,-1,-1,-1,-1,-1,-1,-1,-1,-1,-1,-1,-1,-1,-1,-1,-1,-1,-1,-1,-1,-1,-1,-1,-1,-1,-1,-1],"split_conditions":[2.415E3,1.435E3,5E0,5E0,5E0,4.977E3,3.638E3,1.09E3,1.031E3,3E0,7.07E2,3E0,2.1E2,6.02E2,2.62E2,3E0,5.01E2,1.4E2,3.32E2,1E0,1.67E3,4E0,2.014E3,2.98E2,3.031E3,9.2E1,4.29E2,1E0,9.8911064E1,4.6864952E1,2.7345905E2,9.83E2,1.38E2,1E0,1E0,1E0,3E0,2.69E2,5.31E2,1E0,3.6E1,1E0,3.43E2,2.69E2,3.84E2,4E0,1.3858592E2,2.32E2,5.17E2,7.4E1,2.47E2,3.0778025E1,3E0,2E0,1.0809126E2,2.92E2,1E0,-4.835703E0,-2.905684E0,-8.2351465E0,-6.4934087E0,-2.9478912E0,-6.3544674E0,-3.0360892E0,4.420446E0,-4.595365E0,1.2397011E1,-3.8740938E0,9.062983E0,6.7830615E0,-7.5346346E0,2.0192411E1,1.1688385E0,4.235693E-1,-6.8664618E0,2.025794E1,4.5555263E0,-4.059517E0,-7.4791324E-1,3.0892978E0,-1.6610296E0,2.2302023E1,5.146597E0,2.227945E1,1.4374875E2,5.3419437E1,1.1966785E1,1.9003748E1,-4.3912635E0,4.262605E1,1.6222841E1,1.9092161E1,1.7044685E0,2.0056896E1,8.817189E0,1.08240524E2,1.9869654E1,6.2685924E0,2.7298069E1,2.950487E1,9.7488174E1,2.7483839E1,4.624959E0],"split_indices":[0,0,9,9,9,0,0,0,0,9,8,9,8,8,8,9,8,8,8,9,0,1,0,8,0,8,8,7,0,0,0,0,8,5,2,2,1,8,8,5,8,3,8,8,8,1,0,8,8,8,8,0,9,9,0,8,2,0,0,0,0,0,0,0,0,0,0,0,0,0,0,0,0,0,0,0,0,0,0,0,0,0,0,0,0,0,0,0,0,0,0,0,0,0,0,0,0,0,0,0,0,0,0],"split_type":[0,0,0,0,0,0,0,0,0,0,0,0,0,0,0,0,0,0,0,0,0,0,0,0,0,0,0,0,0,0,0,0,0,0,0,0,0,0,0,0,0,0,0,0,0,0,0,0,0,0,0,0,0,0,0,0,0,0,0,0,0,0,0,0,0,0,0,0,0,0,0,0,0,0,0,0,0,0,0,0,0,0,0,0,0,0,0,0,0,0,0,0,0,0,0,0,0,0,0,0,0,0,0],"sum_hessian":[7.512E3,7.04E3,4.72E2,4.835E3,2.205E3,4.38E2,3.4E1,4.012E3,8.23E2,2.013E3,1.92E2,4.12E2,2.6E1,2.7E1,7E0,2.215E3,1.797E3,5.18E2,3.05E2,1.23E3,7.83E2,1.87E2,5E0,1.94E2,2.18E2,1.3E1,1.3E1,2.4E1,3E0,2E0,5E0,1.972E3,2.43E2,1.436E3,3.61E2,6.3E1,4.55E2,1.43E2,1.62E2,4.13E2,8.17E2,3.56E2,4.27E2,1.76E2,1.1E1,4E0,1E0,9.4E1,1E2,1.02E2,1.16E2,4E0,9E0,1.1E1,2E0,1.4E1,1E1,1.501E3,4.71E2,5.5E1,1.88E2,1.329E3,1.07E2,2.35E2,1.26E2,3.2E1,3.1E1,4.49E2,6E0,6.3E1,8E1,6.5E1,9.7E1,3.3E2,8.3E1,4.8E1,7.69E2,2.3E2,1.26E2,2.37E2,1.9E2,4.2E1,1.34E2,1E1,1E0,3E0,1E0,7.8E1,1.6E1,3.8E1,6.2E1,1E1,9.2E1,7.3E1,4.3E1,8E0,1E0,6E0,5E0,1.2E1,2E0,4E0,6E0],"tree_param":{"num_deleted":"0","num_feature":"10","num_nodes":"103","size_leaf_vector":"1"}},{"base_weights":[8.0224335E-1,-1.1365887E0,1.20259926E2,-6.1797605E0,1.6423506E1,8.809191E1,5.596007E2,-9.360844E0,-2.2792466E0,1.2179925E1,6.3955696E1,6.537688E1,1.5802214E2,3.7491962E1,2.050943E2,-1.1400654E1,-5.8126144E0,-4.148094E0,1.2797562E1,7.1353064E0,2.8477507E1,4.7000027E1,1.87126E2,7.8293076E1,2.3656599E1,2.059815E2,9.8775475E1,-1.5404659E1,-1.0118933E1,-7.3262277E0,1.0085424E1,1.4415255E1,-5.1684947E0,8.536505E0,1.0902522E2,4.969076E0,2.7542873E1,2.4192696E1,8.458348E1,1.4256752E2,3.5061344E1,1.0624784E2,3.4380838E2,6.068931E1,8.427635E1,-2.6091593E1,3.982322E1,8.75828E1,1.2578725E2,4.3177216E1,8.6473015E1,-6.2436085E0,-4.3281116E0,-3.2869122E0,4.1393337E0,-1.8767558E0,-6.2603807E0,7.693208E0,-5.615649E0,5.972969E-1,1.0749029E1,-2.138409E0,5.291296E-1,4.7853413E0,-4.9649463E0,3.552158E1,1.2425015E1,1.9102432E0,-8.134914E0,-2.8573415E0,1.3210191E1,1.3273995E1,4.038012E0,-7.5612006E0,4.131923E1,5.8286427E1,1.4953654E1,3.7394354E0,2.5162645E1,-9.798924E-1,7.806628E1,1.2384227E2,1.0171765E1,2.352816E1,3.891882E0,-1.5324601E0,-8.77999E0,-5.6238713E0,1.4664669E1,1.2835673E1,5.5089443E1,4.6566668E0,2.0473553E1],"categories":[],"categories_nodes":[],"categories_segments":[],"categories_sizes":[],"default_left":[0,0,0,0,0,0,0,0,0,0,0,0,0,0,0,0,0,0,0,0,0,0,0,0,0,0,0,0,0,0,0,0,0,0,0,0,0,0,0,0,0,0,0,0,0,0,0,0,0,0,0,0,0,0,0,0,0,0,0,0,0,0,0,0,0,0,0,0,0,0,0,0,0,0,0,0,0,0,0,0,0,0,0,0,0,0,0,0,0,0,0,0,0],"id":5,"left_children":[1,3,5,7,9,11,13,15,17,19,21,23,25,-1,-1,27,29,31,33,35,37,39,41,43,45,47,49,51,53,55,57,59,61,63,65,67,69,71,73,75,77,79,81,83,-1,85,87,-1,89,91,-1,-1,-1,-1,-1,-1,-1,-1,-1,-1,-1,-1,-1,-1,-1,-1,-1,-1,-1,-1,-1,-1,-1,-1,-1,-1,-1,-1,-1,-1,-1,-1,-1,-1,-1,-1,-1,-1,-1,-1,-1,-1,-1],"loss_changes":[1.7402106E6,6.549036E5,1.6466304E6,7.12618E4,3.3203716E5,1.6916588E5,3.4587625E5,2.2833875E4,7.280417E4,1.2443486E5,2.7314375E5,4.5029344E4,5.637275E4,0E0,0E0,1.0149219E4,2.7915344E4,4.3603355E4,1.159283E5,5.1099617E4,8.401816E4,1.3191534E5,1.6622606E5,2.1837422E5,1.8732775E4,5.9787625E4,1.3503164E5,2.263625E3,3.0675094E4,1.5190352E4,4.574358E4,3.1856309E4,2.9612117E4,5.1229594E4,2.7060781E3,4.7239535E4,6.82716E4,7.1292E4,1.4934403E5,5.2658844E4,1.1808192E5,2.031967E5,9.2918375E4,5.1458625E4,0E0,2.5023853E2,9.93624E3,0E0,3.5353734E4,7.2597344E3,0E0,0E0,0E0,0E0,0E0,0E0,0E0,0E0,0E0,0E0,0E0,0E0,0E0,0E0,0E0,0E0,0E0,0E0,0E0,0E0,0E0,0E0,0E0,0E0,0E0,0E0,0E0,0E0,0E0,0E0,0E0,0E0,0E0,0E0,0E0,0E0,0E0,0E0,0E0,0E0,0E0,0E0,0E0],"parents":[2147483647,0,0,1,1,2,2,3,3,4,4,5,5,6,6,7,7,8,8,9,9,10,10,11,11,12,12,15,15,16,16,17,17,18,18,19,19,20,20,21,21,22,22,23,23,24,24,25,25,26,26,27,27,28,28,29,29,30,30,31,31,32,32,33,33,34,34,35,35,36,36,37,37,38,38,39,39,40,40,41,41,42,42,43,43,45,45,46,46,48,48,49,49],"right_children":[2,4,6,8,10,12,14,16,18,20,22,24,26,-1,-1,28,30,32,34,36,38,40,42,44,46,48,50,52,54,56,58,60,62,64,66,68,70,72,74,76,78,80,82,84,-1,86,88,-1,90,92,-1,-1,-1,-1,-1,-1,-1,-1,-1,-1,-1,-1,-1,-1,-1,-1,-1,-1,-1,-1,-1,-1,-1,-1,-1,-1,-1,-1,-1,-1,-1,-1,-1,-1,-1,-1,-1,-1,-1,-1,-1,-1,-1],"split_conditions":[3.638E3,1.65E3,5E0,1.14E3,5E0,4.977E3,2.62E2,1E0,5E0,2.37E3,6.02E2,4.96E2,2.1E2,3.7491962E1,2.050943E2,7.2E2,6.85E2,4.1E1,6.67E2,6.54E2,6.19E2,1.83E2,4E0,4.35E2,5.44E2,1E0,4.29E2,7.6E1,5E0,6.44E2,7.29E2,3.2E1,5.11E2,5.31E2,7.29E2,6.19E2,1E0,2E0,1E0,1E0,3.08E2,7.07E2,5E0,2.47E2,8.427635E1,1E0,4.146E3,8.75828E1,5E0,2E0,8.6473015E1,-6.2436085E0,-4.3281116E0,-3.2869122E0,4.1393337E0,-1.8767558E0,-6.2603807E0,7.693208E0,-5.615649E0,5.972969E-1,1.0749029E1,-2.138409E0,5.291296E-1,4.7853413E0,-4.9649463E0,3.552158E1,1.2425015E1,1.9102432E0,-8.134914E0,-2.8573415E0,1.3210191E1,1.3273995E1,4.038012E0,-7.5612006E0,4.131923E1,5.8286427E1,1.4953654E1,3.7394354E0,2.5162645E1,-9.798924E-1,7.806628E1,1.2384227E2,1.0171765E1,2.352816E1,3.891882E0,-1.5324601E0,-8.77999E0,-5.6238713E0,1.4664669E1,1.2835673E1,5.5089443E1,4.6566668E0,2.0473553E1],"split_indices":[0,0,9,0,9,0,8,2,9,0,8,8,8,0,0,0,8,8,8,8,8,8,1,8,8,6,8,8,9,8,8,8,8,8,8,8,9,9,9,5,8,8,1,8,0,3,0,0,1,9,0,0,0,0,0,0,0,0,0,0,0,0,0,0,0,0,0,0,0,0,0,0,0,0,0,0,0,0,0,0,0,0,0,0,0,0,0,0,0,0,0,0,0],"split_type":[0,0,0,0,0,0,0,0,0,0,0,0,0,0,0,0,0,0,0,0,0,0,0,0,0,0,0,0,0,0,0,0,0,0,0,0,0,0,0,0,0,0,0,0,0,0,0,0,0,0,0,0,0,0,0,0,0,0,0,0,0,0,0,0,0,0,0,0,0,0,0,0,0,0,0,0,0,0,0,0,0,0,0,0,0,0,0,0,0,0,0,0,0],"sum_hessian":[7.512E3,7.393E3,1.19E2,5.744E3,1.649E3,1.12E2,7E0,3.163E3,2.581E3,1.515E3,1.34E2,8.6E1,2.6E1,2E0,5E0,2.007E3,1.156E3,2.297E3,2.84E2,1.158E3,3.57E2,1.19E2,1.5E1,6.5E1,2.1E1,1.3E1,1.3E1,4.84E2,1.523E3,1.056E3,1E2,1.19E2,2.178E3,2.73E2,1.1E1,1.048E3,1.1E2,3.33E2,2.4E1,1.2E1,1.07E2,1.1E1,4E0,6.1E1,4E0,5E0,1.6E1,5E0,8E0,1.1E1,2E0,7.1E1,4.13E2,1.472E3,5.1E1,9.8E2,7.6E1,6.5E1,3.5E1,7.6E1,4.3E1,1.698E3,4.8E2,2.11E2,6.2E1,9E0,2E0,1.005E3,4.3E1,3.4E1,7.6E1,1.15E2,2.18E2,8E0,1.6E1,7E0,5E0,7.4E1,3.3E1,7E0,4E0,3E0,1E0,4.4E1,1.7E1,1E0,4E0,2E0,1.4E1,4E0,4E0,6E0,5E0],"tree_param":{"num_deleted":"0","num_feature":"10","num_nodes":"93","size_leaf_vector":"1"}},{"base_weights":[6.987046E-1,-7.401391E-1,8.934963E1,-3.0167155E0,1.9765453E1,6.500536E1,4.2204382E2,-5.722289E0,2.4808164E0,1.5681685E1,7.572613E1,4.703306E1,1.2050851E2,2.6474567E2,2.2846964E2,-6.8387475E0,-4.691934E-1,7.9562134E-1,1.8247944E1,8.901025E1,1.4252552E1,5.6981655E1,2.0368867E2,5.8452873E1,5.854036E0,1.4465363E2,5.6145653E1,4.3475784E2,-1.1329911E2,-1.2006695E1,-5.7751575E0,-8.333212E0,4.9839797E0,1.8270286E0,-1.3022034E1,1.0605842E1,1.1790717E2,4.3324413E1,1.12148346E2,2.4185188E1,7.288906E0,6.712087E1,4.810686E1,1.55932865E1,2.665498E2,7.194883E1,1.6966942E1,-3.431493E1,1.22236395E1,1.6827809E2,4.1977067E0,1.9241024E1,7.139113E1,1.7314586E2,2.9993572E1,-4.193272E-1,-4.474453E0,1.053543E1,-1.8783108E0,-2.6637516E0,2.8602123E0,7.349088E0,6.054105E-1,1.6756767E0,-1.2574055E0,-4.423422E0,5.044509E0,5.423512E0,-1.4110919E1,2.3097296E1,1.03610085E2,1.7525871E1,6.3515835E0,3.525119E0,3.7443684E1,1.7348047E1,3.8568425E0,5.680488E-1,6.910022E0,1.722207E1,-1.7773573E1,1.0608809E2,3.589453E1,1.660781E1,6.4050026E1,-2.3804088E0,1.1304517E1,-2.470335E1,9.261631E0,1.0009412E1,-3.3818513E-1,1.13302555E1,5.5267437E1,-2.2188835E0,9.175666E0,2.4445488E1,3.1382997E0],"categories":[],"categories_nodes":[],"categories_segments":[],"categories_sizes":[],"default_left":[0,0,0,0,0,0,0,0,0,0,0,0,0,0,0,0,0,0,0,0,0,0,0,0,0,0,0,0,0,0,0,0,0,0,0,0,0,0,0,0,0,0,0,0,0,0,0,0,0,0,0,0,0,0,0,0,0,0,0,0,0,0,0,0,0,0,0,0,0,0,0,0,0,0,0,0,0,0,0,0,0,0,0,0,0,0,0,0,0,0,0,0,0,0,0,0,0],"id":6,"left_children":[1,3,5,7,9,11,13,15,17,19,21,23,25,27,-1,29,31,33,35,37,39,41,43,45,47,49,51,53,-1,55,57,59,61,63,65,67,69,71,73,75,77,-1,79,-1,81,83,85,87,89,91,-1,93,95,-1,-1,-1,-1,-1,-1,-1,-1,-1,-1,-1,-1,-1,-1,-1,-1,-1,-1,-1,-1,-1,-1,-1,-1,-1,-1,-1,-1,-1,-1,-1,-1,-1,-1,-1,-1,-1,-1,-1,-1,-1,-1,-1,-1],"loss_changes":[9.583856E5,3.4523038E5,9.4446875E5,9.901538E4,1.6769644E5,1.0705181E5,2.2562775E5,2.6159953E4,5.8334703E4,7.104086E4,1.0832303E5,4.0570156E4,3.3837625E4,9.287141E5,0E0,2.0152578E4,3.3619594E4,2.8313277E4,1.6021E5,8.883328E3,4.6719188E4,5.583278E4,4.3365734E4,3.6851906E4,5.536662E3,5.6294625E4,3.6900176E3,2.283225E5,0E0,1.932357E4,6.088043E4,3.2159414E3,2.6746422E4,4.182599E4,7.341199E3,8.613557E4,1.1301169E5,7.695137E2,8.704867E3,1.055912E5,3.3935598E4,0E0,4.7329758E4,0E0,8.856094E3,1.0794203E5,9.583967E3,1.1934861E4,5.1181597E3,2.6341688E4,0E0,1.4349696E3,2.8376973E3,0E0,0E0,0E0,0E0,0E0,0E0,0E0,0E0,0E0,0E0,0E0,0E0,0E0,0E0,0E0,0E0,0E0,0E0,0E0,0E0,0E0,0E0,0E0,0E0,0E0,0E0,0E0,0E0,0E0,0E0,0E0,0E0,0E0,0E0,0E0,0E0,0E0,0E0,0E0,0E0,0E0,0E0,0E0,0E0],"parents":[2147483647,0,0,1,1,2,2,3,3,4,4,5,5,6,6,7,7,8,8,9,9,10,10,11,11,12,12,13,13,15,15,16,16,17,17,18,18,19,19,20,20,21,21,22,22,23,23,24,24,25,25,26,26,27,27,29,29,30,30,31,31,32,32,33,33,34,34,35,35,36,36,37,37,38,38,39,39,40,40,42,42,44,44,45,45,46,46,47,47,48,48,49,49,51,51,52,52],"right_children":[2,4,6,8,10,12,14,16,18,20,22,24,26,28,-1,30,32,34,36,38,40,42,44,46,48,50,52,54,-1,56,58,60,62,64,66,68,70,72,74,76,78,-1,80,-1,82,84,86,88,90,92,-1,94,96,-1,-1,-1,-1,-1,-1,-1,-1,-1,-1,-1,-1,-1,-1,-1,-1,-1,-1,-1,-1,-1,-1,-1,-1,-1,-1,-1,-1,-1,-1,-1,-1,-1,-1,-1,-1,-1,-1,-1,-1,-1,-1,-1,-1],"split_conditions":[3.638E3,1.97E3,5E0,1.346E3,5E0,4.977E3,6.54E2,5E0,5E0,1.7E1,7.07E2,5E0,3E0,3.37E2,2.2846964E2,1.14E2,7E2,1E0,6.02E2,1E0,1E0,1E0,2.014E3,4.96E2,1E0,1E0,1E0,1E0,-1.1329911E2,4.1E1,1.24E2,7.01E2,1.4E2,3E0,6.26E2,5.24E2,1.745E3,2.014E3,2E3,2E0,4.54E2,6.712087E1,6.44E2,1.55932865E1,2.24E3,4.35E2,2E0,3.89E2,1E0,8.6E1,4.1977067E0,1E0,4E0,1.7314586E2,2.9993572E1,-4.193272E-1,-4.474453E0,1.053543E1,-1.8783108E0,-2.6637516E0,2.8602123E0,7.349088E0,6.054105E-1,1.6756767E0,-1.2574055E0,-4.423422E0,5.044509E0,5.423512E0,-1.4110919E1,2.3097296E1,1.03610085E2,1.7525871E1,6.3515835E0,3.525119E0,3.7443684E1,1.7348047E1,3.8568425E0,5.680488E-1,6.910022E0,1.722207E1,-1.7773573E1,1.0608809E2,3.589453E1,1.660781E1,6.4050026E1,-2.3804088E0,1.1304517E1,-2.470335E1,9.261631E0,1.0009412E1,-3.3818513E-1,1.13302555E1,5.5267437E1,-2.2188835E0,9.175666E0,2.4445488E1,3.1382997E0],"split_indices":[0,0,9,0,9,0,8,9,9,8,8,1,9,8,0,8,0,5,8,3,4,4,0,8,6,7,3,2,0,8,8,8,8,9,8,8,0,0,0,9,8,0,8,0,0,8,9,8,7,8,0,2,9,0,0,0,0,0,0,0,0,0,0,0,0,0,0,0,0,0,0,0,0,0,0,0,0,0,0,0,0,0,0,0,0,0,0,0,0,0,0,0,0,0,0,0,0],"split_type":[0,0,0,0,0,0,0,0,0,0,0,0,0,0,0,0,0,0,0,0,0,0,0,0,0,0,0,0,0,0,0,0,0,0,0,0,0,0,0,0,0,0,0,0,0,0,0,0,0,0,0,0,0,0,0,0,0,0,0,0,0,0,0,0,0,0,0,0,0,0,0,0,0,0,0,0,0,0,0,0,0,0,0,0,0,0,0,0,0,0,0,0,0,0,0,0,0],"sum_hessian":[7.512E3,7.393E3,1.19E2,6.655E3,7.38E2,1.12E2,7E0,4.46E3,2.195E3,6.89E2,4.9E1,8.6E1,2.6E1,6E0,1E0,3.678E3,7.82E2,1.984E3,2.11E2,1.2E1,6.77E2,4.4E1,5E0,6.7E1,1.9E1,1.8E1,8E0,5E0,1E0,6.26E2,3.052E3,3.2E2,4.62E2,1.847E3,1.37E2,1.97E2,1.4E1,5E0,7E0,2.78E2,3.99E2,1E0,4.3E1,2E0,3E0,5E1,1.7E1,2E0,1.7E1,1.5E1,3E0,3E0,5E0,3E0,2E0,1.35E2,4.91E2,3.5E1,3.017E3,3.11E2,9E0,6E1,4.02E2,1.137E3,7.1E2,1.3E2,7E0,1.75E2,2.2E1,1.3E1,1E0,2E0,3E0,1E0,6E0,6.9E1,2.09E2,2.98E2,1.01E2,4E1,3E0,1E0,2E0,4.6E1,4E0,8E0,9E0,1E0,1E0,6E0,1.1E1,2E0,1.3E1,1E0,2E0,4E0,1E0],"tree_param":{"num_deleted":"0","num_feature":"10","num_nodes":"97","size_leaf_vector":"1"}},{"base_weights":[6.163539E-1,-5.852122E-1,6.0005062E1,-2.9745173E0,9.256342E0,4.362263E1,3.0999597E2,-7.8251266E0,-1.8982127E0,6.448549E0,4.4504833E1,9.113948E1,3.156917E1,1.8691281E2,1.9419917E2,-2.8395172E1,-6.8579865E0,-5.079006E0,7.688305E-1,6.131472E1,5.8621936E0,1.29872675E1,1.13831955E2,4.9515987E1,3.360388E1,1.9759674E1,5.292275E1,3.0533298E2,-9.630425E1,-2.009488E1,-3.5227646E1,6.888292E0,-8.328707E0,-9.593158E0,-4.0502467E0,-2.3883075E-1,1.9916204E1,1.180776E0,7.123865E1,6.988195E0,-1.0802706E1,8.84182E1,-3.0383682E0,2.9244107E2,7.911204E1,8.55106E1,-1.1281876E1,-2.692367E0,3.478753E1,3.405859E1,1.3698827E2,1.3418806E2,8.70392E1,-6.2440557E0,-5.349283E-1,-1.1054441E1,-5.252407E0,6.2429345E-1,8.6018E0,-4.5371127E0,-2.0066965E0,-5.236698E0,-2.7499347E0,1.1875826E1,-1.2653639E0,1.1383677E0,-8.849972E-1,4.0955124E0,1.6936487E1,-2.4650025E0,2.9963517E0,1.0291998E1,2.7815306E1,1.3486761E0,4.917811E0,-7.714424E0,4.2698846E0,1.5459896E1,4.7558006E1,7.618468E0,-4.5741944E0,1.057028E2,7.9252076E0,4.5564274E1,3.1484334E0,7.949103E0,3.0229689E1,-1.3854764E1,1.5784429E1,2.6518364E0,-1.932772E1,1.6430292E1,5.324158E-1,-1.846029E0,1.4634317E1,6.26412E1,9.277638E0,3.093277E1,5.8243656E0],"categories":[],"categories_nodes":[],"categories_segments":[],"categories_sizes":[],"default_left":[0,0,0,0,0,0,0,0,0,0,0,0,0,0,0,0,0,0,0,0,0,0,0,0,0,0,0,0,0,0,0,0,0,0,0,0,0,0,0,0,0,0,0,0,0,0,0,0,0,0,0,0,0,0,0,0,0,0,0,0,0,0,0,0,0,0,0,0,0,0,0,0,0,0,0,0,0,0,0,0,0,0,0,0,0,0,0,0,0,0,0,0,0,0,0,0,0,0,0],"id":7,"left_children":[1,3,5,7,9,11,13,15,17,19,21,23,25,27,-1,29,31,33,35,37,39,41,43,-1,45,47,49,51,-1,53,55,57,59,61,63,65,67,69,71,73,75,77,79,81,83,85,87,89,91,93,95,-1,97,-1,-1,-1,-1,-1,-1,-1,-1,-1,-1,-1,-1,-1,-1,-1,-1,-1,-1,-1,-1,-1,-1,-1,-1,-1,-1,-1,-1,-1,-1,-1,-1,-1,-1,-1,-1,-1,-1,-1,-1,-1,-1,-1,-1,-1,-1],"loss_changes":[5.361587E5,1.7321164E5,5.9670075E5,3.0928434E4,1.4213152E5,7.787947E4,2.526875E5,2.1211336E4,4.1164938E4,4.2556754E4,2.3013394E5,1.1352845E5,2.7702203E4,5.792066E5,0E0,2.0142617E3,2.0860598E4,1.0238262E4,5.094109E4,8.270586E3,2.4863652E4,8.972197E4,1.8150703E5,0E0,4.0572547E4,2.5399115E4,5.8767375E4,1.7799162E5,0E0,2.7871582E2,7.272266E1,1.0412764E4,1.0260797E4,1.2155469E3,1.3363027E4,2.744752E4,2.9443676E4,3.303586E2,6.338324E3,2.8947195E4,3.1725943E4,2.544821E4,2.190989E4,7.036825E4,1.4320888E5,4.532043E3,2.4730236E4,2.2638332E4,2.9584781E4,2.0428852E4,4.6861484E4,0E0,2.3451016E3,0E0,0E0,0E0,0E0,0E0,0E0,0E0,0E0,0E0,0E0,0E0,0E0,0E0,0E0,0E0,0E0,0E0,0E0,0E0,0E0,0E0,0E0,0E0,0E0,0E0,0E0,0E0,0E0,0E0,0E0,0E0,0E0,0E0,0E0,0E0,0E0,0E0,0E0,0E0,0E0,0E0,0E0,0E0,0E0,0E0,0E0],"parents":[2147483647,0,0,1,1,2,2,3,3,4,4,5,5,6,6,7,7,8,8,9,9,10,10,11,11,12,12,13,13,15,15,16,16,17,17,18,18,19,19,20,20,21,21,22,22,24,24,25,25,26,26,27,27,29,29,30,30,31,31,32,32,33,33,34,34,35,35,36,36,37,37,38,38,39,39,40,40,41,41,42,42,43,43,44,44,45,45,46,46,47,47,48,48,49,49,50,50,52,52],"right_children":[2,4,6,8,10,12,14,16,18,20,22,24,26,28,-1,30,32,34,36,38,40,42,44,-1,46,48,50,52,-1,54,56,58,60,62,64,66,68,70,72,74,76,78,80,82,84,86,88,90,92,94,96,-1,98,-1,-1,-1,-1,-1,-1,-1,-1,-1,-1,-1,-1,-1,-1,-1,-1,-1,-1,-1,-1,-1,-1,-1,-1,-1,-1,-1,-1,-1,-1,-1,-1,-1,-1,-1,-1,-1,-1,-1,-1,-1,-1,-1,-1,-1,-1],"split_conditions":[3.494E3,1.695E3,5E0,1E0,5E0,1E0,6.54E2,4.4E1,1.014E3,1.7E1,3.08E2,2E0,4.4E3,3.37E2,1.9419917E2,1.18E3,9.3E1,5.81E2,6.74E2,2E3,1E0,1.83E2,1.725E3,4.9515987E1,2.47E2,2.21E2,5E0,1E0,-9.630425E1,1.15E3,1.641E3,1.505E3,1E0,8.6E1,1.5E1,3E0,1E0,1.766E3,1E0,2.495E3,2E0,1.08E2,2.69E2,4.82E2,1E0,1E0,4.35E2,2.13E2,4.96E2,1E0,1E0,1.3418806E2,4.146E3,-6.2440557E0,-5.349283E-1,-1.1054441E1,-5.252407E0,6.2429345E-1,8.6018E0,-4.5371127E0,-2.0066965E0,-5.236698E0,-2.7499347E0,1.1875826E1,-1.2653639E0,1.1383677E0,-8.849972E-1,4.0955124E0,1.6936487E1,-2.4650025E0,2.9963517E0,1.0291998E1,2.7815306E1,1.3486761E0,4.917811E0,-7.714424E0,4.2698846E0,1.5459896E1,4.7558006E1,7.618468E0,-4.5741944E0,1.057028E2,7.9252076E0,4.5564274E1,3.1484334E0,7.949103E0,3.0229689E1,-1.3854764E1,1.5784429E1,2.6518364E0,-1.932772E1,1.6430292E1,5.324158E-1,-1.846029E0,1.4634317E1,6.26412E1,9.277638E0,3.093277E1,5.8243656E0],"split_indices":[0,0,9,9,9,6,8,8,0,8,8,9,0,8,0,0,8,0,8,0,5,8,0,0,8,8,1,7,0,0,0,0,3,8,8,9,3,0,3,0,9,8,8,8,7,2,8,8,8,4,4,0,0,0,0,0,0,0,0,0,0,0,0,0,0,0,0,0,0,0,0,0,0,0,0,0,0,0,0,0,0,0,0,0,0,0,0,0,0,0,0,0,0,0,0,0,0,0,0],"split_type":[0,0,0,0,0,0,0,0,0,0,0,0,0,0,0,0,0,0,0,0,0,0,0,0,0,0,0,0,0,0,0,0,0,0,0,0,0,0,0,0,0,0,0,0,0,0,0,0,0,0,0,0,0,0,0,0,0,0,0,0,0,0,0,0,0,0,0,0,0,0,0,0,0,0,0,0,0,0,0,0,0,0,0,0,0,0,0,0,0,0,0,0,0,0,0,0,0,0,0],"sum_hessian":[7.512E3,7.364E3,1.48E2,5.926E3,1.438E3,1.4E2,8E0,1.075E3,4.851E3,1.333E3,1.05E2,2.7E1,1.13E2,7E0,1E0,4.7E1,1.028E3,2.212E3,2.639E3,1.3E1,1.32E3,7.3E1,3.2E1,1.1E1,1.6E1,7.4E1,3.9E1,6E0,1E0,2.3E1,2.4E1,9.9E1,9.29E2,4.09E2,1.803E3,2.508E3,1.31E2,2E0,1.1E1,1.237E3,8.3E1,1.2E1,6.1E1,4E0,2.8E1,7E0,9E0,3E1,4.4E1,3.3E1,6E0,3E0,3E0,2.2E1,1E0,2.1E1,3E0,8.2E1,1.7E1,1.79E2,7.5E2,1.9E1,3.9E2,6E0,1.797E3,1.008E3,1.5E3,1.13E2,1.8E1,1E0,1E0,5E0,6E0,9.79E2,2.58E2,5.2E1,3.1E1,9E0,3E0,1.8E1,4.3E1,3E0,1E0,1.3E1,1.5E1,2E0,5E0,6E0,3E0,2.6E1,4E0,2.7E1,1.7E1,9E0,2.4E1,3E0,3E0,2E0,1E0],"tree_param":{"num_deleted":"0","num_feature":"10","num_nodes":"99","size_leaf_vector":"1"}},{"base_weights":[5.268593E-1,-2.8750035E-1,5.0700592E1,-1.8052673E0,9.102579E0,3.4863113E1,2.680674E2,-3.42184E0,1.2831523E0,6.577441E0,4.6451126E1,3.1459648E1,6.2407692E1,1.4915392E2,1.6506929E2,-2.7570977E0,-9.007548E0,-2.2193894E-1,1.8384624E1,5.0268566E1,5.974543E0,2.697775E1,1.3959517E2,7.521903E1,2.4953678E1,2.6496692E2,-8.185862E1,-4.360817E0,-7.379435E-1,-9.906745E0,1.2823794E1,7.279619E0,-3.4374955E0,-3.5790455E-1,3.5704983E1,2.5730001E1,6.238892E1,2.312468E0,1.2570248E1,1.383934E2,2.016219E1,8.5857376E1,7.521923E1,6.0068058E1,3.769883E1,1.6295042E1,4.632754E1,1.03995766E2,6.773046E1,1.0001836E0,-1.4412328E0,-3.4842658E-1,7.751785E0,-3.3078253E0,8.8346595E-1,-1.1094154E1,6.4081845E0,1.9520866E0,3.6465736E1,-1.988566E0,2.9713413E-1,-5.213186E0,2.317547E0,1.52426E1,3.8714337E0,1.1962299E1,2.6067765E0,2.546901E0,2.06628E1,1.3095207E0,-1.0929144E1,4.790924E1,1.7286096E0,7.5432725E0,5.473376E1,4.6645756E0,3.901045E1,-1.7664108E1,4.5624725E1,1.413639E1,4.5249352E0,-4.071164E0,7.7318883E0,5.2134296E1,1.1005131E0,2.5527998E1,4.95071E0],"categories":[],"categories_nodes":[],"categories_segments":[],"categories_sizes":[],"default_left":[0,0,0,0,0,0,0,0,0,0,0,0,0,0,0,0,0,0,0,0,0,0,0,0,0,0,0,0,0,0,0,0,0,0,0,0,0,0,0,0,0,0,0,0,0,0,0,0,0,0,0,0,0,0,0,0,0,0,0,0,0,0,0,0,0,0,0,0,0,0,0,0,0,0,0,0,0,0,0,0,0,0,0,0,0,0,0],"id":8,"left_children":[1,3,5,7,9,11,13,15,17,19,21,23,-1,25,-1,27,29,31,33,35,37,39,41,43,45,47,-1,49,51,53,55,57,59,61,63,65,67,69,71,73,75,-1,77,-1,79,81,83,-1,85,-1,-1,-1,-1,-1,-1,-1,-1,-1,-1,-1,-1,-1,-1,-1,-1,-1,-1,-1,-1,-1,-1,-1,-1,-1,-1,-1,-1,-1,-1,-1,-1,-1,-1,-1,-1,-1,-1],"loss_changes":[3.0699172E5,1.0539537E5,4.037594E5,3.1787633E4,9.6739695E4,6.005242E4,1.8635531E5,1.5492027E4,5.6321617E4,2.5119023E4,1.1413289E5,3.0009102E4,0E0,4.1442397E5,0E0,1.2094537E4,8.843051E3,4.855785E4,5.747181E4,2.2611406E3,2.298966E4,3.8974492E4,8.228278E4,5.8116156E4,1.7566879E4,7.3189375E4,0E0,7.1177734E3,1.865684E4,6.175008E3,8.442995E3,5.253893E4,1.9915482E4,1.1965149E4,3.1026102E4,1.0997014E3,2.212455E3,4.8986637E4,3.3964894E5,1.037925E4,2.4844314E4,0E0,1.0172056E5,0E0,1.8464141E3,2.0730334E4,1.516001E5,0E0,1.2641582E3,0E0,0E0,0E0,0E0,0E0,0E0,0E0,0E0,0E0,0E0,0E0,0E0,0E0,0E0,0E0,0E0,0E0,0E0,0E0,0E0,0E0,0E0,0E0,0E0,0E0,0E0,0E0,0E0,0E0,0E0,0E0,0E0,0E0,0E0,0E0,0E0,0E0,0E0],"parents":[2147483647,0,0,1,1,2,2,3,3,4,4,5,5,6,6,7,7,8,8,9,9,10,10,11,11,13,13,15,15,16,16,17,17,18,18,19,19,20,20,21,21,22,22,23,23,24,24,25,25,27,27,28,28,29,29,30,30,31,31,32,32,33,33,34,34,35,35,36,36,37,37,38,38,39,39,40,40,42,42,44,44,45,45,46,46,48,48],"right_children":[2,4,6,8,10,12,14,16,18,20,22,24,-1,26,-1,28,30,32,34,36,38,40,42,44,46,48,-1,50,52,54,56,58,60,62,64,66,68,70,72,74,76,-1,78,-1,80,82,84,-1,86,-1,-1,-1,-1,-1,-1,-1,-1,-1,-1,-1,-1,-1,-1,-1,-1,-1,-1,-1,-1,-1,-1,-1,-1,-1,-1,-1,-1,-1,-1,-1,-1,-1,-1,-1,-1,-1,-1],"split_conditions":[3.638E3,1.829E3,5E0,1E0,5E0,8.902E3,6.54E2,6.62E2,6.81E2,1.7E1,6.02E2,1.69E2,6.2407692E1,3.37E2,1.6506929E2,1E0,1E0,1E0,1.078E3,1E0,4.93E2,1E0,6.54E2,1E0,4.35E2,1E0,-8.185862E1,4.1E1,6.57E2,1E0,6.67E2,1E0,4E0,1E0,6.87E2,2.014E3,2E3,4.51E2,4.96E2,1.875E3,5E0,8.5857376E1,7.07E2,6.0068058E1,5E0,4.146E3,5.11E2,1.03995766E2,4.146E3,1.0001836E0,-1.4412328E0,-3.4842658E-1,7.751785E0,-3.3078253E0,8.8346595E-1,-1.1094154E1,6.4081845E0,1.9520866E0,3.6465736E1,-1.988566E0,2.9713413E-1,-5.213186E0,2.317547E0,1.52426E1,3.8714337E0,1.1962299E1,2.6067765E0,2.546901E0,2.06628E1,1.3095207E0,-1.0929144E1,4.790924E1,1.7286096E0,7.5432725E0,5.473376E1,4.6645756E0,3.901045E1,-1.7664108E1,4.5624725E1,1.413639E1,4.5249352E0,-4.071164E0,7.7318883E0,5.2134296E1,1.1005131E0,2.5527998E1,4.95071E0],"split_indices":[0,0,9,2,9,0,8,8,8,8,8,8,0,8,0,3,5,6,0,3,8,4,8,4,8,2,0,8,8,7,8,5,9,6,8,0,0,8,8,0,1,0,8,0,1,0,8,0,0,0,0,0,0,0,0,0,0,0,0,0,0,0,0,0,0,0,0,0,0,0,0,0,0,0,0,0,0,0,0,0,0,0,0,0,0,0,0],"split_type":[0,0,0,0,0,0,0,0,0,0,0,0,0,0,0,0,0,0,0,0,0,0,0,0,0,0,0,0,0,0,0,0,0,0,0,0,0,0,0,0,0,0,0,0,0,0,0,0,0,0,0,0,0,0,0,0,0,0,0,0,0,0,0,0,0,0,0,0,0,0,0,0,0,0,0,0,0,0,0,0,0,0,0,0,0,0,0],"sum_hessian":[7.512E3,7.393E3,1.19E2,6.365E3,1.028E3,1.12E2,7E0,4.178E3,2.187E3,9.64E2,6.4E1,1.11E2,1E0,6E0,1E0,3.735E3,4.43E2,2.011E3,1.76E2,1.2E1,9.52E2,5.4E1,1E1,1.3E1,9.8E1,5E0,1E0,2.081E3,1.654E3,4.26E2,1.7E1,6.03E2,1.408E3,8.5E1,9.1E1,5E0,7E0,6.13E2,3.39E2,2E0,5.2E1,2E0,8E0,2E0,1.1E1,7.1E1,2.7E1,3E0,2E0,1.13E2,1.968E3,1.629E3,2.5E1,3.92E2,3.4E1,2E0,1.5E1,6E2,3E0,8.18E2,5.9E2,2.7E1,5.8E1,5.4E1,3.7E1,2E0,3E0,1E0,6E0,5.83E2,3E1,1.4E1,3.25E2,1E0,1E0,5.1E1,1E0,3E0,5E0,7E0,4E0,1.7E1,5.4E1,6E0,2.1E1,1E0,1E0],"tree_param":{"num_deleted":"0","num_feature":"10","num_nodes":"87","size_leaf_vector":"1"}},{"base_weights":[4.707691E-1,-2.3241666E-1,3.522575E1,-1.6166277E0,4.673521E0,2.4518892E1,1.9905258E2,7.381851E0,-1.9341205E0,3.1130893E0,2.196642E1,2.2168001E1,5.3046535E1,1.07010086E2,1.403089E2,4.555224E-1,3.922995E1,-7.6819735E0,-1.3859463E0,-3.861537E-2,7.4054723E0,1.8486742E1,1.6775008E2,4.6479073E1,1.621566E1,1.8856374E2,-6.957983E1,-5.4064445E0,1.2279576E1,1.5277272E1,2.5159843E1,-9.270016E0,9.443849E-1,3.4413666E1,-1.555977E0,-2.9823785E0,1.0702351E1,5.1167927E0,4.0159508E1,6.5019307E0,4.0023064E1,-1.0089661E0,7.6496506E1,7.023068E1,-1.870983E1,4.1407463E1,1.1680186E1,8.0596695E1,6.1330902E1,-8.7632036E-1,-5.90104E0,4.9992876E0,-1.40086355E1,2.596264E0,1.7626186E1,-2.70048E0,-1.2751695E1,2.2997167E0,-9.665376E0,3.697461E1,4.756189E0,-9.961973E-1,-7.487305E-2,-4.7606462E-1,-1.1326526E1,3.5999268E1,5.232019E-1,7.0469246E0,-1.9543105E-1,6.9542212E0,4.7331158E1,1.0789169E1,-3.756263E0,2.321561E1,1.214645E0,1.5264092E1,6.5683174E1,-8.561055E0,7.5118976E0,4.0823032E1,5.913932E0,-3.7556164E0,6.177766E0,2.172696E1,4.2081027E0],"categories":[],"categories_nodes":[],"categories_segments":[],"categories_sizes":[],"default_left":[0,0,0,0,0,0,0,0,0,0,0,0,0,0,0,0,0,0,0,0,0,0,0,0,0,0,0,0,0,0,0,0,0,0,0,0,0,0,0,0,0,0,0,0,0,0,0,0,0,0,0,0,0,0,0,0,0,0,0,0,0,0,0,0,0,0,0,0,0,0,0,0,0,0,0,0,0,0,0,0,0,0,0,0,0],"id":9,"left_children":[1,3,5,7,9,11,13,15,17,19,21,23,-1,25,-1,27,29,31,33,35,37,39,41,43,45,47,-1,49,51,53,-1,55,57,59,61,63,65,67,69,71,73,-1,-1,75,77,79,81,-1,83,-1,-1,-1,-1,-1,-1,-1,-1,-1,-1,-1,-1,-1,-1,-1,-1,-1,-1,-1,-1,-1,-1,-1,-1,-1,-1,-1,-1,-1,-1,-1,-1,-1,-1,-1,-1],"loss_changes":[1.8361997E5,5.0022184E4,2.56476E5,1.642747E4,4.367331E4,4.65649E4,1.724915E5,4.3217848E4,1.7476434E4,2.0130434E4,6.4874383E4,1.9505406E4,0E0,2.648703E5,0E0,1.1294967E4,3.613923E4,6.625381E3,3.0902625E4,2.719252E4,4.7021516E4,3.3810125E4,4.564046E4,4.3119215E4,1.2541623E4,5.485533E4,0E0,3.8066626E3,1.4741939E4,6.4022993E3,0E0,3.2571406E3,1.7186996E4,3.7616062E4,1.1629807E4,3.269459E4,1.8092497E5,6.2543164E4,7.821528E4,4.8648934E4,6.2858492E4,0E0,0E0,4.6413203E4,4.1539697E3,3.2231926E4,2.1393406E4,0E0,1.0829541E3,0E0,0E0,0E0,0E0,0E0,0E0,0E0,0E0,0E0,0E0,0E0,0E0,0E0,0E0,0E0,0E0,0E0,0E0,0E0,0E0,0E0,0E0,0E0,0E0,0E0,0E0,0E0,0E0,0E0,0E0,0E0,0E0,0E0,0E0,0E0,0E0],"parents":[2147483647,0,0,1,1,2,2,3,3,4,4,5,5,6,6,7,7,8,8,9,9,10,10,11,11,13,13,15,15,16,16,17,17,18,18,19,19,20,20,21,21,22,22,23,23,24,24,25,25,27,27,28,28,29,29,31,31,32,32,33,33,34,34,35,35,36,36,37,37,38,38,39,39,40,40,43,43,44,44,45,45,46,46,48,48],"right_children":[2,4,6,8,10,12,14,16,18,20,22,24,-1,26,-1,28,30,32,34,36,38,40,42,44,46,48,-1,50,52,54,-1,56,58,60,62,64,66,68,70,72,74,-1,-1,76,78,80,82,-1,84,-1,-1,-1,-1,-1,-1,-1,-1,-1,-1,-1,-1,-1,-1,-1,-1,-1,-1,-1,-1,-1,-1,-1,-1,-1,-1,-1,-1,-1,-1,-1,-1,-1,-1,-1,-1],"split_conditions":[3.494E3,1.65E3,5E0,3.6E1,5E0,8.902E3,6.54E2,3.2E1,9.4E1,1E0,7.15E2,1E0,5.3046535E1,3.37E2,1.403089E2,1E0,1.325E3,1E0,1E2,4.88E2,6.74E2,3.08E2,2.014E3,5E0,1.69E2,1E0,-6.957983E1,3E1,1E0,1E0,2.5159843E1,1.641E3,4E0,1E0,2E0,4.52E2,4.96E2,3.43E2,4E0,2.69E2,4.82E2,-1.0089661E0,7.6496506E1,4.977E3,8E0,1E0,2.21E2,8.0596695E1,4.146E3,-8.7632036E-1,-5.90104E0,4.9992876E0,-1.40086355E1,2.596264E0,1.7626186E1,-2.70048E0,-1.2751695E1,2.2997167E0,-9.665376E0,3.697461E1,4.756189E0,-9.961973E-1,-7.487305E-2,-4.7606462E-1,-1.1326526E1,3.5999268E1,5.232019E-1,7.0469246E0,-1.9543105E-1,6.9542212E0,4.7331158E1,1.0789169E1,-3.756263E0,2.321561E1,1.214645E0,1.5264092E1,6.5683174E1,-8.561055E0,7.5118976E0,4.0823032E1,5.913932E0,-3.7556164E0,6.177766E0,2.172696E1,4.2081027E0],"split_indices":[0,0,9,8,9,0,8,8,8,2,8,6,0,8,0,2,0,7,8,8,8,8,0,1,8,7,0,8,3,3,0,0,9,6,9,8,8,8,1,8,8,0,0,0,1,4,8,0,0,0,0,0,0,0,0,0,0,0,0,0,0,0,0,0,0,0,0,0,0,0,0,0,0,0,0,0,0,0,0,0,0,0,0,0,0],"split_type":[0,0,0,0,0,0,0,0,0,0,0,0,0,0,0,0,0,0,0,0,0,0,0,0,0,0,0,0,0,0,0,0,0,0,0,0,0,0,0,0,0,0,0,0,0,0,0,0,0,0,0,0,0,0,0,0,0,0,0,0,0,0,0,0,0,0,0,0,0,0,0,0,0,0,0,0,0,0,0,0,0,0,0,0,0],"sum_hessian":[7.512E3,7.364E3,1.48E2,5.744E3,1.62E3,1.4E2,8E0,1.95E2,5.549E3,1.487E3,1.33E2,1.39E2,1E0,7E0,1E0,1.61E2,3.4E1,4.82E2,5.067E3,8.58E2,6.29E2,1.31E2,2E0,2.6E1,1.13E2,6E0,1E0,1.08E2,5.3E1,2.3E1,1.1E1,4.07E2,7.5E1,2.3E1,5.044E3,6.74E2,1.84E2,5.89E2,4E1,8.5E1,4.6E1,1E0,1E0,1.9E1,7E0,1.6E1,9.7E1,3E0,3E0,9.3E1,1.5E1,5E1,3E0,2.1E1,2E0,4.05E2,2E0,6.3E1,1.2E1,3E0,2E1,2.145E3,2.899E3,6.49E2,2.5E1,1.3E1,1.71E2,1.4E2,4.49E2,3.6E1,4E0,3.3E1,5.2E1,2.2E1,2.4E1,1.8E1,1E0,6E0,1E0,2E0,1.4E1,2.6E1,7.1E1,2E0,1E0],"tree_param":{"num_deleted":"0","num_feature":"10","num_nodes":"85","size_leaf_vector":"1"}},{"base_weights":[4.09349E-1,-7.968674E-2,3.053869E1,-9.157565E-1,5.0928106E0,2.0214466E1,1.7255103E2,-5.1984434E0,-4.28672E-1,3.560986E0,2.7756168E1,1.771105E1,4.5089558E1,8.3617775E1,1.19262566E2,-5.919597E0,-1.7920372E0,-1.0627811E0,3.6650736E0,4.104098E0,-1.0958169E1,1.2739179E1,1.00317825E2,4.962396E1,1.3019213E1,1.6326834E2,-5.914285E1,-7.8247128E0,-4.483912E0,-2.8152003E0,1.0571351E1,2.4632524E-1,-4.4369345E0,2.4310905E1,1.1918617E0,3.5768795E0,4.1950912E1,1.0629946E2,7.2029524E0,6.844297E1,4.656293E1,4.2445732E1,2.252318E1,-1.266571E1,1.888334E1,5.734585E1,3.5768876E0,-2.0500302E0,-3.517827E0,-1.4321094E0,7.9706664E0,2.9800997E0,-1.0612602E0,-2.585052E0,5.1854005E0,-5.266998E-1,1.478406E0,-8.155981E-1,-3.6546898E0,1.4207131E1,-2.3969715E0,-2.5685802E0,3.0300262E0,1.3981946E0,-3.4803162E0,3.5043034E1,-1.1670384E1,2.9294405E0,4.490532E1,-3.9445455E0,8.186284E0,-1.39629755E1,3.026197E1,8.8731785E0,2.0196059E0,-1.7954182E1,2.5378954E0,1.9487503E1,3.4436994E0],"categories":[],"categories_nodes":[],"categories_segments":[],"categories_sizes":[],"default_left":[0,0,0,0,0,0,0,0,0,0,0,0,0,0,0,0,0,0,0,0,0,0,0,0,0,0,0,0,0,0,0,0,0,0,0,0,0,0,0,0,0,0,0,0,0,0,0,0,0,0,0,0,0,0,0,0,0,0,0,0,0,0,0,0,0,0,0,0,0,0,0,0,0,0,0,0,0,0,0],"id":10,"left_children":[1,3,5,7,9,11,13,15,17,19,21,23,-1,25,-1,27,29,31,33,35,-1,37,39,41,43,45,-1,47,49,51,53,55,57,59,61,63,65,67,69,-1,71,-1,73,75,77,-1,-1,-1,-1,-1,-1,-1,-1,-1,-1,-1,-1,-1,-1,-1,-1,-1,-1,-1,-1,-1,-1,-1,-1,-1,-1,-1,-1,-1,-1,-1,-1,-1,-1],"loss_changes":[1.10701414E5,3.1980527E4,1.7245205E5,1.3277443E4,3.562423E4,3.4137016E4,1.2683175E5,1.5861426E3,1.484455E4,2.1160271E4,6.9549766E4,1.6123711E4,0E0,1.8872638E5,0E0,1.4309551E3,1.4844832E3,2.1870283E4,3.9135207E4,1.886567E4,0E0,2.7722729E4,6.4960633E4,3.1666664E4,1.515052E4,2.3042031E4,0E0,8.0549414E2,2.89842E3,1.02049615E3,1.3082867E3,3.3450484E4,1.8386072E4,6.142007E4,5.9692332E4,1.5532926E4,8.322695E4,1.11028125E4,2.2022629E4,0E0,5.0204586E4,0E0,1.1375908E3,1.944411E4,2.6887912E4,0E0,0E0,0E0,0E0,0E0,0E0,0E0,0E0,0E0,0E0,0E0,0E0,0E0,0E0,0E0,0E0,0E0,0E0,0E0,0E0,0E0,0E0,0E0,0E0,0E0,0E0,0E0,0E0,0E0,0E0,0E0,0E0,0E0,0E0],"parents":[2147483647,0,0,1,1,2,2,3,3,4,4,5,5,6,6,7,7,8,8,9,9,10,10,11,11,13,13,15,15,16,16,17,17,18,18,19,19,21,21,22,22,23,23,24,24,25,25,27,27,28,28,29,29,30,30,31,31,32,32,33,33,34,34,35,35,36,36,37,37,38,38,40,40,42,42,43,43,44,44],"right_children":[2,4,6,8,10,12,14,16,18,20,22,24,-1,26,-1,28,30,32,34,36,-1,38,40,42,44,46,-1,48,50,52,54,56,58,60,62,64,66,68,70,-1,72,-1,74,76,78,-1,-1,-1,-1,-1,-1,-1,-1,-1,-1,-1,-1,-1,-1,-1,-1,-1,-1,-1,-1,-1,-1,-1,-1,-1,-1,-1,-1,-1,-1,-1,-1,-1,-1],"split_conditions":[3.638E3,1.829E3,5E0,6.5E2,5E0,8.902E3,6.54E2,1E0,5E0,7.07E2,6.02E2,1.69E2,4.5089558E1,3.37E2,1.19262566E2,3.32E2,1E0,3E0,1.47E2,6.85E2,-1.0958169E1,1E0,6.54E2,1E0,1E0,6E0,-5.914285E1,2.69E2,3E0,4.5E2,1E0,2E0,1E0,1E0,2.92E2,1E0,3E0,1.875E3,1E0,6.844297E1,7.07E2,4.2445732E1,5E0,4.4E3,1E0,5.734585E1,3.5768876E0,-2.0500302E0,-3.517827E0,-1.4321094E0,7.9706664E0,2.9800997E0,-1.0612602E0,-2.585052E0,5.1854005E0,-5.266998E-1,1.478406E0,-8.155981E-1,-3.6546898E0,1.4207131E1,-2.3969715E0,-2.5685802E0,3.0300262E0,1.3981946E0,-3.4803162E0,3.5043034E1,-1.1670384E1,2.9294405E0,4.490532E1,-3.9445455E0,8.186284E0,-1.39629755E1,3.026197E1,8.8731785E0,2.0196059E0,-1.7954182E1,2.5378954E0,1.9487503E1,3.4436994E0],"split_indices":[0,0,9,0,9,0,8,3,9,8,8,8,0,8,0,8,5,9,8,8,0,4,8,4,3,1,0,8,1,0,4,9,2,3,8,5,9,0,2,0,8,0,1,0,6,0,0,0,0,0,0,0,0,0,0,0,0,0,0,0,0,0,0,0,0,0,0,0,0,0,0,0,0,0,0,0,0,0,0],"split_type":[0,0,0,0,0,0,0,0,0,0,0,0,0,0,0,0,0,0,0,0,0,0,0,0,0,0,0,0,0,0,0,0,0,0,0,0,0,0,0,0,0,0,0,0,0,0,0,0,0,0,0,0,0,0,0,0,0,0,0,0,0,0,0,0,0,0,0,0,0,0,0,0,0,0,0,0,0,0,0],"sum_hessian":[7.512E3,7.393E3,1.19E2,6.365E3,1.028E3,1.12E2,7E0,6.49E2,5.716E3,9.64E2,6.4E1,1.11E2,1E0,6E0,1E0,5.35E2,1.14E2,4.95E3,7.66E2,9.52E2,1.2E1,5.4E1,1E1,1.3E1,9.8E1,5E0,1E0,2.28E2,3.07E2,1.06E2,8E0,3.567E3,1.383E3,8.1E1,6.85E2,9.4E2,1.2E1,2E0,5.2E1,2E0,8E0,2E0,1.1E1,1.8E1,8E1,4E0,1E0,1.84E2,4.4E1,3.05E2,2E0,5E0,1.01E2,2E0,6E0,2.499E3,1.068E3,1.133E3,2.5E2,4.7E1,3.4E1,3.27E2,3.58E2,8.78E2,6.2E1,6E0,6E0,1E0,1E0,2.6E1,2.6E1,3E0,5E0,7E0,4E0,5E0,1.3E1,1E1,7E1],"tree_param":{"num_deleted":"0","num_feature":"10","num_nodes":"79","size_leaf_vector":"1"}},{"base_weights":[3.3823854E-1,-8.1717074E-2,2.1094177E1,-1.6047164E0,1.9353577E0,1.6407469E1,1.8688544E2,-8.105739E-1,-4.2636366E0,9.747866E-1,9.694199E0,1.97943E1,-1.0877359E2,1.013732E2,2.390683E1,-1.5540849E0,1.7385485E1,-1.7395593E0,-1.1247352E1,1.4333397E0,-2.7998745E1,5.2903237E0,6.2018547E1,1.4810998E1,1.1449687E2,-9.995154E0,-5.0271427E1,9.998562E0,7.5951236E-1,-2.3221564E0,2.3342178E0,3.307733E1,4.93925E0,-3.9850698E0,4.08714E0,-1.3195582E1,9.062791E0,1.4686493E1,8.606873E-1,-3.3833824E1,3.3436443E1,2.389945E0,5.735656E1,1.4293262E2,4.1732075E1,1.3041172E1,3.832612E1,4.9559605E1,3.5170853E1,-9.148459E-1,-1.0199271E-4,-5.8457786E-1,4.822874E0,6.612443E0,3.6410767E1,-1.6819499E0,6.5134125E0,2.8587463E0,-1.3743794E0,-2.8407952E-1,7.592446E0,-2.2717788E0,-5.3378873E0,-9.950411E0,8.8835335E0,-5.401557E0,7.0519004E0,2.1336225E-1,2.0088522E1,-6.1560493E0,-1.7195393E1,2.1757958E0,-4.442309E0,5.7929962E1,4.3427577E0,4.574268E0,6.6892044E1,4.9394693E0,3.8820282E1,2.6098087E0,9.322734E0,1.2041437E1,3.0403566E0],"categories":[],"categories_nodes":[],"categories_segments":[],"categories_sizes":[],"default_left":[0,0,0,0,0,0,0,0,0,0,0,0,0,0,0,0,0,0,0,0,0,0,0,0,0,0,0,0,0,0,0,0,0,0,0,0,0,0,0,0,0,0,0,0,0,0,0,0,0,0,0,0,0,0,0,0,0,0,0,0,0,0,0,0,0,0,0,0,0,0,0,0,0,0,0,0,0,0,0,0,0,0,0],"id":11,"left_children":[1,3,5,7,9,11,13,15,17,19,21,23,25,-1,27,29,31,33,35,37,39,41,43,45,47,-1,-1,-1,-1,49,51,53,55,57,59,61,63,65,67,69,-1,71,73,75,77,79,-1,-1,81,-1,-1,-1,-1,-1,-1,-1,-1,-1,-1,-1,-1,-1,-1,-1,-1,-1,-1,-1,-1,-1,-1,-1,-1,-1,-1,-1,-1,-1,-1,-1,-1,-1,-1],"loss_changes":[6.5489332E4,2.2628408E4,1.1270893E5,8.858768E3,2.3608848E4,6.405228E4,9.037714E4,4.376618E4,1.6990912E4,3.7519664E4,8.009194E4,6.579038E4,1.216368E4,0E0,5.1979236E2,9.284457E3,2.4640285E4,9.305867E3,1.0249211E4,2.1070852E4,3.9574727E4,4.8639734E4,3.835458E4,2.5718742E4,2.2343617E4,0E0,0E0,0E0,0E0,4.382245E3,3.0223688E4,5.1889926E4,1.2856697E4,4.176954E3,2.1175928E4,5.9143906E3,2.094158E4,3.3581816E4,2.6274768E4,1.2268207E4,0E0,2.5780912E4,9.6157766E4,4.7700297E4,4.8817758E4,1.0378844E4,0E0,0E0,9.066797E1,0E0,0E0,0E0,0E0,0E0,0E0,0E0,0E0,0E0,0E0,0E0,0E0,0E0,0E0,0E0,0E0,0E0,0E0,0E0,0E0,0E0,0E0,0E0,0E0,0E0,0E0,0E0,0E0,0E0,0E0,0E0,0E0,0E0,0E0],"parents":[2147483647,0,0,1,1,2,2,3,3,4,4,5,5,6,6,7,7,8,8,9,9,10,10,11,11,12,12,14,14,15,15,16,16,17,17,18,18,19,19,20,20,21,21,22,22,23,23,24,24,29,29,30,30,31,31,32,32,33,33,34,34,35,35,36,36,37,37,38,38,39,39,41,41,42,42,43,43,44,44,45,45,48,48],"right_children":[2,4,6,8,10,12,14,16,18,20,22,24,26,-1,28,30,32,34,36,38,40,42,44,46,48,-1,-1,-1,-1,50,52,54,56,58,60,62,64,66,68,70,-1,72,74,76,78,80,-1,-1,82,-1,-1,-1,-1,-1,-1,-1,-1,-1,-1,-1,-1,-1,-1,-1,-1,-1,-1,-1,-1,-1,-1,-1,-1,-1,-1,-1,-1,-1,-1,-1,-1,-1,-1],"split_conditions":[3.494E3,1.293E3,7.1E2,5.51E2,6.34E2,6.34E2,4.146E3,5.01E2,3E0,6.19E2,4E0,5E0,4.146E3,1.013732E2,7.15E2,5E0,5.31E2,1E0,7.1E2,3.6E1,3.34E3,2.415E3,3E0,8.902E3,1E0,-9.995154E0,-5.0271427E1,9.998562E0,7.5951236E-1,1.16E3,3.32E2,5E0,5.43E2,5.76E2,1E0,2E0,1E0,1E0,5E0,1.8E3,3.3436443E1,3E0,6.49E2,1E0,4E0,4.977E3,3.832612E1,4.9559605E1,4.146E3,-9.148459E-1,-1.0199271E-4,-5.8457786E-1,4.822874E0,6.612443E0,3.6410767E1,-1.6819499E0,6.5134125E0,2.8587463E0,-1.3743794E0,-2.8407952E-1,7.592446E0,-2.2717788E0,-5.3378873E0,-9.950411E0,8.8835335E0,-5.401557E0,7.0519004E0,2.1336225E-1,2.0088522E1,-6.1560493E0,-1.7195393E1,2.1757958E0,-4.442309E0,5.7929962E1,4.3427577E0,4.574268E0,6.6892044E1,4.9394693E0,3.8820282E1,2.6098087E0,9.322734E0,1.2041437E1,3.0403566E0],"split_indices":[0,0,8,8,8,8,0,8,9,8,9,9,0,0,8,9,8,2,8,8,0,0,1,0,7,0,0,0,0,0,8,9,8,8,4,1,4,9,1,0,0,9,8,2,1,0,0,0,0,0,0,0,0,0,0,0,0,0,0,0,0,0,0,0,0,0,0,0,0,0,0,0,0,0,0,0,0,0,0,0,0,0,0],"split_type":[0,0,0,0,0,0,0,0,0,0,0,0,0,0,0,0,0,0,0,0,0,0,0,0,0,0,0,0,0,0,0,0,0,0,0,0,0,0,0,0,0,0,0,0,0,0,0,0,0,0,0,0,0,0,0,0,0,0,0,0,0,0,0,0,0,0,0,0,0,0,0,0,0,0,0,0,0,0,0,0,0,0,0],"sum_hessian":[7.512E3,7.364E3,1.48E2,4.196E3,3.168E3,1.45E2,3E0,3.232E3,9.64E2,2.82E3,3.48E2,1.42E2,3E0,1E0,2E0,3.106E3,1.26E2,7.09E2,2.55E2,2.777E3,4.3E1,3.22E2,2.6E1,1.36E2,6E0,2E0,1E0,1E0,1E0,2.594E3,5.12E2,5.5E1,7.1E1,5.12E2,1.97E2,2.33E2,2.2E1,1.14E2,2.663E3,4.2E1,1E0,3.06E2,1.6E1,4E0,2.2E1,1.35E2,1E0,3E0,3E0,1.975E3,6.19E2,3.91E2,1.21E2,5E1,5E0,4.4E1,2.7E1,2.1E1,4.91E2,1.6E2,3.7E1,1.06E2,1.27E2,7E0,1.5E1,2.4E1,9E1,2.658E3,5E0,2.8E1,1.4E1,2.39E2,6.7E1,3E0,1.3E1,2E0,2E0,1.8E1,4E0,1.1E2,2.5E1,2E0,1E0],"tree_param":{"num_deleted":"0","num_feature":"10","num_nodes":"83","size_leaf_vector":"1"}},{"base_weights":[2.93379E-1,-1.6411033E-1,1.1448327E1,-2.3768294E0,4.7359586E-1,7.212755E0,5.915094E1,-1.7121153E0,-4.8368998E0,-2.4821548E0,1.3027456E0,6.440812E0,3.2577194E1,1.6308958E2,3.0208733E1,-2.4819334E0,5.315371E0,-5.8650947E0,2.171459E1,-1.0850568E0,-1.0109012E1,7.8689754E-1,1.0350795E1,8.037224E0,-3.618889E1,6.0249985E1,8.6167206E1,6.1976917E1,-3.764317E1,-4.1030655E0,-1.4536866E0,-2.314298E-1,3.0165453E1,-3.6731184E0,-2.1719894E1,-1.3086057E0,5.8813423E1,-1.8401548E0,2.8405499E1,-2.323407E1,-7.792382E0,2.9076884E0,-1.1793922E0,6.7219853E0,8.3965355E1,6.925771E0,4.4885666E1,-5.285641E1,2.03208E1,3.7111736E1,-2.137207E0,4.7902923E0,4.918644E1,3.5615234E0,-4.27307E1,5.5207532E-2,-1.8463932E0,-8.3133596E-1,6.374706E-1,-8.686337E0,9.3967134E-1,1.1495166E1,-1.1085617E1,3.8534808E0,-1.4031678E0,2.0356527E1,-7.726969E0,5.3763995E0,-6.0830464E0,2.327801E1,6.1287036E0,-5.0002213E0,-2.7694774E-1,9.598546E0,-2.9340744E0,-1.9308158E0,-7.085354E0,-1.9113863E0,-8.6694E0,5.175077E-1,9.814833E0,-2.052401E0,4.8686692E-1,5.573847E0,-6.531732E-1,3.3479576E1,-8.076831E0,7.902747E-1,7.801179E0,-2.3221748E1,-9.531692E0,8.498776E0,6.455841E-1,-3.5460482E0,2.5843048E0,-3.4268157E0,6.9863544E0,-1.4179102E1,1.2237012E1],"categories":[],"categories_nodes":[],"categories_segments":[],"categories_sizes":[],"default_left":[0,0,0,0,0,0,0,0,0,0,0,0,0,0,0,0,0,0,0,0,0,0,0,0,0,0,0,0,0,0,0,0,0,0,0,0,0,0,0,0,0,0,0,0,0,0,0,0,0,0,0,0,0,0,0,0,0,0,0,0,0,0,0,0,0,0,0,0,0,0,0,0,0,0,0,0,0,0,0,0,0,0,0,0,0,0,0,0,0,0,0,0,0,0,0,0,0,0,0],"id":12,"left_children":[1,3,5,7,9,11,13,15,17,19,21,23,-1,25,27,29,31,33,35,37,39,41,43,45,47,49,-1,51,53,55,57,59,61,63,65,67,69,71,73,75,77,79,81,83,85,87,-1,89,91,-1,93,95,-1,97,-1,-1,-1,-1,-1,-1,-1,-1,-1,-1,-1,-1,-1,-1,-1,-1,-1,-1,-1,-1,-1,-1,-1,-1,-1,-1,-1,-1,-1,-1,-1,-1,-1,-1,-1,-1,-1,-1,-1,-1,-1,-1,-1,-1,-1],"loss_changes":[3.8342746E4,1.018619E4,5.9379516E4,2.6326367E3,1.3737291E4,2.0665008E4,6.72704E4,6.899977E3,9.491294E3,1.3073943E4,2.0421143E4,1.8801695E4,0E0,4.6524438E4,4.544365E4,1.9076646E3,1.7374627E4,1.1423578E4,1.1180703E4,2.3188992E4,5.5960723E3,1.727594E4,6.2479027E4,4.034979E4,1.0492851E4,1.6099701E4,0E0,8.085939E4,3.0732887E4,3.9150415E3,3.3249324E3,1.0138622E4,1.3999807E4,4.9031646E3,1.6211094E4,3.646206E3,2.019127E3,1.3771488E4,3.876836E3,2.8501953E1,4.704754E3,7.020341E4,3.412378E4,2.3888566E4,3.671071E4,2.1382578E4,0E0,1.681457E3,3.7555017E2,0E0,4.1414343E2,3.2650215E3,0E0,1.3280767E4,0E0,0E0,0E0,0E0,0E0,0E0,0E0,0E0,0E0,0E0,0E0,0E0,0E0,0E0,0E0,0E0,0E0,0E0,0E0,0E0,0E0,0E0,0E0,0E0,0E0,0E0,0E0,0E0,0E0,0E0,0E0,0E0,0E0,0E0,0E0,0E0,0E0,0E0,0E0,0E0,0E0,0E0,0E0,0E0,0E0],"parents":[2147483647,0,0,1,1,2,2,3,3,4,4,5,5,6,6,7,7,8,8,9,9,10,10,11,11,13,13,14,14,15,15,16,16,17,17,18,18,19,19,20,20,21,21,22,22,23,23,24,24,25,25,27,27,28,28,29,29,30,30,31,31,32,32,33,33,34,34,35,35,36,36,37,37,38,38,39,39,40,40,41,41,42,42,43,43,44,44,45,45,47,47,48,48,50,50,51,51,53,53],"right_children":[2,4,6,8,10,12,14,16,18,20,22,24,-1,26,28,30,32,34,36,38,40,42,44,46,48,50,-1,52,54,56,58,60,62,64,66,68,70,72,74,76,78,80,82,84,86,88,-1,90,92,-1,94,96,-1,98,-1,-1,-1,-1,-1,-1,-1,-1,-1,-1,-1,-1,-1,-1,-1,-1,-1,-1,-1,-1,-1,-1,-1,-1,-1,-1,-1,-1,-1,-1,-1,-1,-1,-1,-1,-1,-1,-1,-1,-1,-1,-1,-1,-1,-1],"split_conditions":[2.807E3,8.97E2,5E0,1E0,1E0,8.902E3,1E0,5E0,7.01E2,5.31E2,6.74E2,6.49E2,3.2577194E1,2.62E2,3.37E2,2.53E2,2E0,7.83E2,2E0,5.11E2,6.26E2,3.55E2,2.15E3,6.34E2,4.146E3,3.34E3,8.6167206E1,2.92E2,3.031E3,2E0,1E0,6.1E1,5.31E2,1.4E2,6.8E1,7.15E2,7.37E2,5.1E1,2.18E3,9.26E2,2.282E3,3.45E2,4.36E2,6.87E2,1E0,4.35E2,4.4885666E1,4E0,7.15E2,3.7111736E1,3.494E3,1E0,4.918644E1,6.02E2,-4.27307E1,5.5207532E-2,-1.8463932E0,-8.3133596E-1,6.374706E-1,-8.686337E0,9.3967134E-1,1.1495166E1,-1.1085617E1,3.8534808E0,-1.4031678E0,2.0356527E1,-7.726969E0,5.3763995E0,-6.0830464E0,2.327801E1,6.1287036E0,-5.0002213E0,-2.7694774E-1,9.598546E0,-2.9340744E0,-1.9308158E0,-7.085354E0,-1.9113863E0,-8.6694E0,5.175077E-1,9.814833E0,-2.052401E0,4.8686692E-1,5.573847E0,-6.531732E-1,3.3479576E1,-8.076831E0,7.902747E-1,7.801179E0,-2.3221748E1,-9.531692E0,8.498776E0,6.455841E-1,-3.5460482E0,2.5843048E0,-3.4268157E0,6.9863544E0,-1.4179102E1,1.2237012E1],"split_indices":[0,0,9,7,9,0,3,9,8,8,8,8,0,8,8,8,1,0,1,8,8,8,0,8,0,0,0,8,0,9,2,8,8,8,8,8,0,8,0,0,0,8,8,8,7,8,0,1,8,0,0,7,0,8,0,0,0,0,0,0,0,0,0,0,0,0,0,0,0,0,0,0,0,0,0,0,0,0,0,0,0,0,0,0,0,0,0,0,0,0,0,0,0,0,0,0,0,0,0],"split_type":[0,0,0,0,0,0,0,0,0,0,0,0,0,0,0,0,0,0,0,0,0,0,0,0,0,0,0,0,0,0,0,0,0,0,0,0,0,0,0,0,0,0,0,0,0,0,0,0,0,0,0,0,0,0,0,0,0,0,0,0,0,0,0,0,0,0,0,0,0,0,0,0,0,0,0,0,0,0,0,0,0,0,0,0,0,0,0,0,0,0,0,0,0,0,0,0,0,0,0],"sum_hessian":[7.512E3,7.217E3,2.95E2,1.614E3,5.603E3,2.72E2,2.3E1,1.272E3,3.42E2,1.227E3,4.376E3,2.71E2,1E0,4E0,1.9E1,1.147E3,1.25E2,3.3E2,1.2E1,1.038E3,1.89E2,4.141E3,2.35E2,2.62E2,9E0,3E0,1E0,1.3E1,6E0,4.44E2,7.03E2,1.03E2,2.2E1,2.91E2,3.9E1,8E0,4E0,1.013E3,2.5E1,2.7E1,1.62E2,1.992E3,2.149E3,2.25E2,1E1,2.61E2,1E0,7E0,2E0,1E0,2E0,9E0,4E0,5E0,1E0,1.44E2,3E2,5.14E2,1.89E2,1E1,9.3E1,2E1,2E0,1.6E1,2.75E2,1E0,3.8E1,4E0,4E0,2E0,2E0,5.8E1,9.55E2,2.3E1,2E0,1E0,2.6E1,1.53E2,9E0,1.917E3,7.5E1,7.11E2,1.438E3,9.6E1,1.29E2,8E0,2E0,2.14E2,4.7E1,2E0,5E0,1E0,1E0,1E0,1E0,5E0,4E0,2E0,3E0],"tree_param":{"num_deleted":"0","num_feature":"10","num_nodes":"99","size_leaf_vector":"1"}},{"base_weights":[2.3839758E-1,1.240703E-1,2.6962097E1,-2.3003237E-1,4.7598476E0,3.564283E1,-3.6321095E1,7.498311E-1,-1.1911263E0,2.5982063E0,3.8386745E1,2.6162535E1,3.4621418E1,1.5584528E-1,2.2627684E1,3.776999E-1,-4.3696775E0,2.1136196E1,6.733524E-1,2.31179E1,1.782796E2,3.756272E1,-1.6343792E1,3.2900336E-1,-3.0246157E1,4.1063206E1,5.257044E0,1.1699189E0,-1.0193964E1,-6.6011567E0,1.1454614E0,-2.4587064E0,2.6039219E1,-6.2165275E0,7.90159E0,3.1544971E1,1.6663353E1,7.324212E1,6.983707E0,4.8073273E1,-5.48467E0,-1.6168399E-1,1.5446926E0,-2.4768631E0,-2.0029125E1,1.0362333E1,4.822699E1,-2.7675853E0,4.7793117E0,-1.0666953E0,7.114885E-1,-3.7089732E0,3.1933713E0,-2.0969892E0,2.2513844E1,1.2702168E0,-4.012393E0,-1.7681606E0,1.9128724E0,2.5076947E0,1.179638E1,1.314588E-1,-6.611971E0,7.671553E0,-1.5824345E0,-1.4688231E1,7.835542E0,-3.634552E-1,1.6906414E1,-6.2194476E0,5.0017943E0],"categories":[],"categories_nodes":[],"categories_segments":[],"categories_sizes":[],"default_left":[0,0,0,0,0,0,0,0,0,0,0,0,0,0,0,0,0,0,0,0,0,0,0,0,0,0,0,0,0,0,0,0,0,0,0,0,0,0,0,0,0,0,0,0,0,0,0,0,0,0,0,0,0,0,0,0,0,0,0,0,0,0,0,0,0,0,0,0,0,0,0],"id":13,"left_children":[1,3,5,7,9,11,-1,13,15,17,19,21,-1,23,25,27,29,31,33,35,37,39,-1,41,43,45,47,49,51,53,55,57,59,61,63,-1,65,-1,-1,67,69,-1,-1,-1,-1,-1,-1,-1,-1,-1,-1,-1,-1,-1,-1,-1,-1,-1,-1,-1,-1,-1,-1,-1,-1,-1,-1,-1,-1,-1,-1],"loss_changes":[2.2950732E4,1.2283105E4,4.5436242E4,6.547876E3,3.8498277E4,2.0421871E4,0E0,4.473872E4,1.7504598E4,1.782723E4,6.4230617E4,2.8707016E4,0E0,1.7661322E4,2.8925676E4,1.9701723E4,1.4283588E4,5.5012793E3,2.2659086E4,1.4132236E4,2.4942031E4,1.202741E4,0E0,1.39547295E4,1.470616E4,2.8795969E4,7.5670137E3,1.2433564E4,7.5451543E3,2.6745965E4,1.5080278E4,3.10726E2,8.829678E3,2.4544602E4,5.1823105E4,0E0,1.9272818E4,0E0,0E0,8.639402E3,2.3726206E3,0E0,0E0,0E0,0E0,0E0,0E0,0E0,0E0,0E0,0E0,0E0,0E0,0E0,0E0,0E0,0E0,0E0,0E0,0E0,0E0,0E0,0E0,0E0,0E0,0E0,0E0,0E0,0E0,0E0,0E0],"parents":[2147483647,0,0,1,1,2,2,3,3,4,4,5,5,7,7,8,8,9,9,10,10,11,11,13,13,14,14,15,15,16,16,17,17,18,18,19,19,20,20,21,21,23,23,24,24,25,25,26,26,27,27,28,28,29,29,30,30,31,31,32,32,33,33,34,34,36,36,39,39,40,40],"right_children":[2,4,6,8,10,12,-1,14,16,18,20,22,-1,24,26,28,30,32,34,36,38,40,-1,42,44,46,48,50,52,54,56,58,60,62,64,-1,66,-1,-1,68,70,-1,-1,-1,-1,-1,-1,-1,-1,-1,-1,-1,-1,-1,-1,-1,-1,-1,-1,-1,-1,-1,-1,-1,-1,-1,-1,-1,-1,-1,-1],"split_conditions":[4.977E3,2.24E3,5.11E2,3.55E2,5E0,4.29E2,-3.6321095E1,3.45E2,3E0,7.4E1,3.638E3,4.19E2,3.4621418E1,2.2E3,3.49E2,1E0,1E0,1E0,3.08E2,1E0,1E0,1E0,-1.6343792E1,3.03E2,4E0,1.655E3,4E0,4.29E2,6.49E2,2.15E3,1.905E3,2.536E3,1E0,2.47E2,5.17E2,3.1544971E1,1E0,7.324212E1,6.983707E0,1E0,1E0,-1.6168399E-1,1.5446926E0,-2.4768631E0,-2.0029125E1,1.0362333E1,4.822699E1,-2.7675853E0,4.7793117E0,-1.0666953E0,7.114885E-1,-3.7089732E0,3.1933713E0,-2.0969892E0,2.2513844E1,1.2702168E0,-4.012393E0,-1.7681606E0,1.9128724E0,2.5076947E0,1.179638E1,1.314588E-1,-6.611971E0,7.671553E0,-1.5824345E0,-1.4688231E1,7.835542E0,-3.634552E-1,1.6906414E1,-6.2194476E0,5.0017943E0],"split_indices":[0,0,8,8,9,8,0,8,9,8,0,8,0,0,8,5,3,9,8,4,3,7,0,8,1,0,9,8,8,0,0,0,3,8,8,0,3,0,0,3,2,0,0,0,0,0,0,0,0,0,0,0,0,0,0,0,0,0,0,0,0,0,0,0,0,0,0,0,0,0,0],"split_type":[0,0,0,0,0,0,0,0,0,0,0,0,0,0,0,0,0,0,0,0,0,0,0,0,0,0,0,0,0,0,0,0,0,0,0,0,0,0,0,0,0,0,0,0,0,0,0,0,0,0,0,0,0,0,0,0,0,0,0,0,0,0,0,0,0,0,0,0,0,0,0],"sum_hessian":[7.512E3,7.481E3,3.1E1,6.951E3,5.3E2,3E1,1E0,3.442E3,3.509E3,4.99E2,3.1E1,2.8E1,2E0,3.352E3,9E1,2.35E3,1.159E3,4.6E1,4.53E2,2.9E1,2E0,2.5E1,3E0,3.334E3,1.8E1,4.3E1,4.7E1,2.187E3,1.63E2,8.25E2,3.34E2,8E0,3.8E1,2.32E2,2.21E2,1E0,2.8E1,1E0,1E0,2E1,5E0,2.826E3,5.08E2,1.2E1,6E0,4.2E1,1E0,2E1,2.7E1,4.43E2,1.744E3,1.48E2,1.5E1,8.22E2,3E0,2.76E2,5.8E1,6E0,2E0,1.7E1,2.1E1,1.64E2,6.8E1,9.4E1,1.27E2,3E0,2.5E1,3E0,1.7E1,3E0,2E0],"tree_param":{"num_deleted":"0","num_feature":"10","num_nodes":"71","size_leaf_vector":"1"}},{"base_weights":[1.8984327E-1,1.6754456E-1,2.5154665E1,-2.3155148E-1,3.847688E0,3.5355976E-1,-2.1130059E0,3.0183625E0,5.815799E1,-3.035301E-1,1.1333851E1,-1.10631485E1,-1.364231E0,-6.4088044E0,5.551169E0,-1.6846004E1,1.5153198E2,-1.6933012E-1,-1.6957191E1,3.4506657E1,1.1685891E0,-1.416542E1,4.2812717E1,-4.160768E0,4.5809182E-3,-2.614846E1,-1.4222065E0,2.6363451E1,1.5072242E0,-1.8710894E1,1.1362101E0,7.57324E1,1.11979164E-1,4.6440545E-2,-1.6233485E0,-1.1259708E0,-1.6462004E1,1.574307E1,6.8939886E0,-1.963592E-1,6.013157E0,-2.6923983E0,-7.2189097E0,3.8322535E0,1.3707033E1,-1.0460907E0,-9.179269E0,-9.706384E-1,8.824901E-1,-1.323402E1,-2.6276698E0,-2.030374E0,9.786724E0,-1.754273E0,1.7404068E1,-2.4279184E0,3.0894883E0,-2.5754938E0,7.4613237E0,-1.1431732E1,1.1482123E1],"categories":[],"categories_nodes":[],"categories_segments":[],"categories_sizes":[],"default_left":[0,0,0,0,0,0,0,0,0,0,0,0,0,0,0,0,0,0,0,0,0,0,0,0,0,0,0,0,0,0,0,0,0,0,0,0,0,0,0,0,0,0,0,0,0,0,0,0,0,0,0,0,0,0,0,0,0,0,0,0,0],"id":14,"left_children":[1,3,-1,5,7,9,11,13,15,17,19,21,23,25,27,29,31,33,35,37,39,41,43,45,47,49,51,53,55,-1,57,-1,59,-1,-1,-1,-1,-1,-1,-1,-1,-1,-1,-1,-1,-1,-1,-1,-1,-1,-1,-1,-1,-1,-1,-1,-1,-1,-1,-1,-1],"loss_changes":[1.4001367E4,1.1033995E4,0E0,7.4623774E3,3.2929535E4,3.7312406E4,1.0761146E4,1.734654E4,7.959036E4,1.0903545E4,6.87425E4,2.133151E4,5.6845E3,1.5121604E4,4.8101914E4,5.801176E3,7.6370195E4,8.227613E3,1.9319133E4,1.722932E4,7.0331416E3,5.846426E3,2.1375977E1,8.586096E3,9.50666E3,9.29809E3,2.2787865E4,9.515111E4,4.05938E4,0E0,1.5979045E3,0E0,5.8338213E3,0E0,0E0,0E0,0E0,0E0,0E0,0E0,0E0,0E0,0E0,0E0,0E0,0E0,0E0,0E0,0E0,0E0,0E0,0E0,0E0,0E0,0E0,0E0,0E0,0E0,0E0,0E0,0E0],"parents":[2147483647,0,0,1,1,3,3,4,4,5,5,6,6,7,7,8,8,9,9,10,10,11,11,12,12,13,13,14,14,15,15,16,16,17,17,18,18,19,19,20,20,21,21,22,22,23,23,24,24,25,25,26,26,27,27,28,28,30,30,32,32],"right_children":[2,4,-1,6,8,10,12,14,16,18,20,22,24,26,28,30,32,34,36,38,40,42,44,46,48,50,52,54,56,-1,58,-1,60,-1,-1,-1,-1,-1,-1,-1,-1,-1,-1,-1,-1,-1,-1,-1,-1,-1,-1,-1,-1,-1,-1,-1,-1,-1,-1,-1,-1],"split_conditions":[8.902E3,2.014E3,2.5154665E1,5.51E2,7.1E2,5.11E2,5.67E2,1E0,4E0,4E0,5.31E2,4E0,1E0,1E0,2E0,2.63E3,1E0,4.82E2,2.69E2,1E0,4E0,1.405E3,1.766E3,4E0,6.5E2,2.63E3,4.4E3,4.29E2,1E0,-1.8710894E1,1E0,7.57324E1,4E0,4.6440545E-2,-1.6233485E0,-1.1259708E0,-1.6462004E1,1.574307E1,6.8939886E0,-1.963592E-1,6.013157E0,-2.6923983E0,-7.2189097E0,3.8322535E0,1.3707033E1,-1.0460907E0,-9.179269E0,-9.706384E-1,8.824901E-1,-1.323402E1,-2.6276698E0,-2.030374E0,9.786724E0,-1.754273E0,1.7404068E1,-2.4279184E0,3.0894883E0,-2.5754938E0,7.4613237E0,-1.1431732E1,1.1482123E1],"split_indices":[0,0,0,8,8,8,8,9,9,1,8,1,6,4,9,0,3,8,8,6,1,0,0,1,8,0,0,8,2,0,9,0,1,0,0,0,0,0,0,0,0,0,0,0,0,0,0,0,0,0,0,0,0,0,0,0,0,0,0,0,0],"split_type":[0,0,0,0,0,0,0,0,0,0,0,0,0,0,0,0,0,0,0,0,0,0,0,0,0,0,0,0,0,0,0,0,0,0,0,0,0,0,0,0,0,0,0,0,0,0,0,0,0,0,0,0,0,0,0,0,0,0,0,0,0],"sum_hessian":[7.512E3,7.511E3,1E0,6.777E3,7.34E2,5.17E3,1.607E3,7.24E2,1E1,4.879E3,2.91E2,1.23E2,1.484E3,1.53E2,5.71E2,6E0,4E0,4.841E3,3.8E1,8.8E1,2.03E2,1.17E2,6E0,4.87E2,9.97E2,3E1,1.23E2,9.2E1,4.79E2,1E0,5E0,2E0,2E0,4.56E3,2.81E2,2.9E1,9E0,3.3E1,5.5E1,1.86E2,1.7E1,7.8E1,3.9E1,1E0,5E0,4.76E2,1.1E1,4.74E2,5.23E2,1.4E1,1.6E1,1.07E2,1.6E1,4.6E1,4.6E1,2.29E2,2.5E2,4E0,1E0,1E0,1E0],"tree_param":{"num_deleted":"0","num_feature":"10","num_nodes":"61","size_leaf_vector":"1"}},{"base_weights":[1.464564E-1,1.275005E-1,2.1381464E1,-1.1761566E0,8.967002E-1,-6.961097E-1,-3.3397353E0,4.16819E-1,5.1995654E0,-1.1912519E0,2.7932577E0,-2.001769E0,-7.001837E0,6.566698E-1,-9.155852E0,2.7269464E0,8.624798E1,-5.501809E-1,-3.565691E0,1.2985893E1,-6.652543E-1,-3.1109226E0,2.2879872E0,-2.6695535E0,-4.1482132E1,3.8881406E-1,1.2596997E1,-6.0533795E0,-2.0444464E1,1.870772E1,-2.0974753E0,9.84926E1,-1.0939801E1,-4.2736158E-1,7.9696876E-1,-5.644946E0,-5.5324525E-1,5.9372573E0,-2.111399E0,-7.154417E-1,3.8926742E0,-1.1460879E0,1.3207643E0,-7.8256214E-1,5.5447907E0,-1.3989626E0,1.8083694E0,-1.8897438E1,-8.380219E0,2.2394632E-1,-2.5167022E0,4.917147E0,-1.677875E1,-2.8629482E0,1.5088752E1,-2.0456724E0,-1.0035036E1,-9.38888E-1,8.676423E0,-5.126171E0,2.6861987E0,3.361893E1,4.7709627E0],"categories":[],"categories_nodes":[],"categories_segments":[],"categories_sizes":[],"default_left":[0,0,0,0,0,0,0,0,0,0,0,0,0,0,0,0,0,0,0,0,0,0,0,0,0,0,0,0,0,0,0,0,0,0,0,0,0,0,0,0,0,0,0,0,0,0,0,0,0,0,0,0,0,0,0,0,0,0,0,0,0,0,0],"id":15,"left_children":[1,3,-1,5,7,9,11,13,15,17,19,21,23,25,27,29,31,33,35,37,39,41,43,45,47,49,51,53,55,57,59,61,-1,-1,-1,-1,-1,-1,-1,-1,-1,-1,-1,-1,-1,-1,-1,-1,-1,-1,-1,-1,-1,-1,-1,-1,-1,-1,-1,-1,-1,-1,-1],"loss_changes":[1.0120234E4,7.533882E3,0E0,2.893345E3,9.754316E3,3.9477412E3,2.4652666E3,9.76866E3,9.475528E4,3.0424058E3,1.0020022E4,1.7770931E3,2.0055344E4,1.3264787E4,3.5185938E3,3.5581414E4,2.4627828E4,4.422636E3,1.1123615E4,9.950142E3,5.027097E3,1.594449E3,6.154123E3,2.1262148E3,2.611539E3,1.2749877E4,2.4572473E4,1.6801635E4,3.6705107E3,2.3955785E4,5.8961914E4,1.2787961E4,0E0,0E0,0E0,0E0,0E0,0E0,0E0,0E0,0E0,0E0,0E0,0E0,0E0,0E0,0E0,0E0,0E0,0E0,0E0,0E0,0E0,0E0,0E0,0E0,0E0,0E0,0E0,0E0,0E0,0E0,0E0],"parents":[2147483647,0,0,1,1,3,3,4,4,5,5,6,6,7,7,8,8,9,9,10,10,11,11,12,12,13,13,14,14,15,15,16,16,17,17,18,18,19,19,20,20,21,21,22,22,23,23,24,24,25,25,26,26,27,27,28,28,29,29,30,30,31,31],"right_children":[2,4,-1,6,8,10,12,14,16,18,20,22,24,26,28,30,32,34,36,38,40,42,44,46,48,50,52,54,56,58,60,62,-1,-1,-1,-1,-1,-1,-1,-1,-1,-1,-1,-1,-1,-1,-1,-1,-1,-1,-1,-1,-1,-1,-1,-1,-1,-1,-1,-1,-1,-1,-1],"split_conditions":[8.902E3,1.089E3,2.1381464E1,6.26E2,5E0,5.01E2,9.12E2,7.07E2,7.1E2,3.81E2,5.51E2,1E0,5E0,6.85E2,3E0,2.69E2,5E0,5E0,3.86E2,1E0,3E0,1E0,6.72E2,1E0,1E0,6.55E2,2.63E3,2E0,1E0,1.27E3,3.08E2,7.29E2,-1.0939801E1,-4.2736158E-1,7.9696876E-1,-5.644946E0,-5.5324525E-1,5.9372573E0,-2.111399E0,-7.154417E-1,3.8926742E0,-1.1460879E0,1.3207643E0,-7.8256214E-1,5.5447907E0,-1.3989626E0,1.8083694E0,-1.8897438E1,-8.380219E0,2.2394632E-1,-2.5167022E0,4.917147E0,-1.677875E1,-2.8629482E0,1.5088752E1,-2.0456724E0,-1.0035036E1,-9.38888E-1,8.676423E0,-5.126171E0,2.6861987E0,3.361893E1,4.7709627E0],"split_indices":[0,0,0,8,9,8,0,8,8,8,8,7,9,8,9,8,1,9,8,7,1,3,8,2,6,8,0,9,2,0,8,8,0,0,0,0,0,0,0,0,0,0,0,0,0,0,0,0,0,0,0,0,0,0,0,0,0,0,0,0,0,0,0],"split_type":[0,0,0,0,0,0,0,0,0,0,0,0,0,0,0,0,0,0,0,0,0,0,0,0,0,0,0,0,0,0,0,0,0,0,0,0,0,0,0,0,0,0,0,0,0,0,0,0,0,0,0,0,0,0,0,0,0,0,0,0,0,0,0],"sum_hessian":[7.512E3,7.511E3,1E0,2.787E3,4.724E3,2.282E3,5.05E2,4.251E3,4.73E2,1.999E3,2.83E2,3.71E2,1.34E2,4.148E3,1.03E2,4.6E2,1.3E1,1.575E3,4.24E2,7.1E1,2.12E2,2.95E2,7.6E1,1.2E2,1.4E1,4.058E3,9E1,8.2E1,2.1E1,1.06E2,3.54E2,1.2E1,1E0,1.238E3,3.37E2,4.2E1,3.82E2,5.3E1,1.8E1,1.89E2,2.3E1,2.7E2,2.5E1,5.9E1,1.7E1,9.8E1,2.2E1,4E0,1E1,3.9E3,1.58E2,8.6E1,4E0,7.8E1,4E0,1.1E1,1E1,3.4E1,7.2E1,1.5E2,2.04E2,1E1,2E0],"tree_param":{"num_deleted":"0","num_feature":"10","num_nodes":"63","size_leaf_vector":"1"}},{"base_weights":[1.05096295E-1,8.898121E-2,1.8174244E1,5.338448E-1,-2.037193E0,1.21168606E-1,8.183547E0,-2.6887467E0,2.9992336E1,-2.6645517E-1,3.2608538E0,-2.5275183E0,1.7523342E1,9.185329E0,-4.2801213E0,8.6329636E1,1.5744464E-1,-3.73554E0,3.93447E-1,4.9400153E0,-2.8182304E1,6.8541675E0,-2.124034E1,1.1241673E1,1.2864633E2,2.9137348E1,5.5567884E0,-7.352629E0,-1.5309082E0,5.8909935E1,4.585309E1,1.2543775E1,-1.3622638E1,3.8107613E-1,-2.3707566E0,1.3924047E1,2.6660064E-2,4.8516445E0,8.659169E-1,-7.133914E-1,-1.5698657E1,6.8131946E-2,1.426411E1,-1.4550079E0,-2.861053E1,1.1598235E0,7.901222E0,5.7164455E1,1.9781214E1,3.7440841E0,5.9338932E1,5.148845E0,-1.3373807E-1,-6.3187546E-1,-3.052502E0,2.3106925E0,-2.286633E0,2.8438288E1,-2.0189668E-1,-5.662386E0,1.0990542E1,-7.629189E0,2.7296448E-1],"categories":[],"categories_nodes":[],"categories_segments":[],"categories_sizes":[],"default_left":[0,0,0,0,0,0,0,0,0,0,0,0,0,0,0,0,0,0,0,0,0,0,0,0,0,0,0,0,0,0,0,0,0,0,0,0,0,0,0,0,0,0,0,0,0,0,0,0,0,0,0,0,0,0,0,0,0,0,0,0,0,0,0],"id":16,"left_children":[1,3,-1,5,7,9,11,13,15,17,19,21,23,25,27,29,31,33,35,37,39,41,43,45,47,49,51,53,55,57,-1,59,61,-1,-1,-1,-1,-1,-1,-1,-1,-1,-1,-1,-1,-1,-1,-1,-1,-1,-1,-1,-1,-1,-1,-1,-1,-1,-1,-1,-1,-1,-1],"loss_changes":[7.316564E3,7.10637E3,0E0,1.961252E4,2.7210273E4,7.1763994E3,3.185674E4,2.413185E4,4.3687656E4,1.2017777E4,3.435241E4,2.6303697E4,1.1722021E5,1.0769993E4,9.491596E3,7.410133E3,3.2432026E3,1.7510781E4,6.1823945E4,1.4162346E4,2.0437389E4,2.695661E4,6.0286586E4,1.793526E4,2.2371938E4,6.2146867E4,8.994582E3,7.8412207E3,3.3522332E4,1.7168557E4,0E0,8.260594E3,1.5675376E3,0E0,0E0,0E0,0E0,0E0,0E0,0E0,0E0,0E0,0E0,0E0,0E0,0E0,0E0,0E0,0E0,0E0,0E0,0E0,0E0,0E0,0E0,0E0,0E0,0E0,0E0,0E0,0E0,0E0,0E0],"parents":[2147483647,0,0,1,1,3,3,4,4,5,5,6,6,7,7,8,8,9,9,10,10,11,11,12,12,13,13,14,14,15,15,16,16,17,17,18,18,19,19,20,20,21,21,22,22,23,23,24,24,25,25,26,26,27,27,28,28,29,29,31,31,32,32],"right_children":[2,4,-1,6,8,10,12,14,16,18,20,22,24,26,28,30,32,34,36,38,40,42,44,46,48,50,52,54,56,58,-1,60,62,-1,-1,-1,-1,-1,-1,-1,-1,-1,-1,-1,-1,-1,-1,-1,-1,-1,-1,-1,-1,-1,-1,-1,-1,-1,-1,-1,-1,-1,-1],"split_conditions":[8.902E3,1E0,1.8174244E1,5E0,7.1E2,1.97E3,1E0,1.4E2,7.15E2,1.22E2,1E0,3.55E2,1.843E3,1E0,3.2E2,2.936E3,1.001E3,2E0,1.24E2,1.65E2,4.19E2,3.32E2,1.318E3,1.192E3,2.24E3,1E0,5.4E1,9.7E2,5.31E2,1.463E3,4.585309E1,2E0,1.298E3,3.8107613E-1,-2.3707566E0,1.3924047E1,2.6660064E-2,4.8516445E0,8.659169E-1,-7.133914E-1,-1.5698657E1,6.8131946E-2,1.426411E1,-1.4550079E0,-2.861053E1,1.1598235E0,7.901222E0,5.7164455E1,1.9781214E1,3.7440841E0,5.9338932E1,5.148845E0,-1.3373807E-1,-6.3187546E-1,-3.052502E0,2.3106925E0,-2.286633E0,2.8438288E1,-2.0189668E-1,-5.662386E0,1.0990542E1,-7.629189E0,2.7296448E-1],"split_indices":[0,7,0,9,8,0,2,8,8,8,5,8,0,6,8,0,0,9,8,8,8,8,0,0,0,5,8,0,8,0,0,1,0,0,0,0,0,0,0,0,0,0,0,0,0,0,0,0,0,0,0,0,0,0,0,0,0,0,0,0,0,0,0],"split_type":[0,0,0,0,0,0,0,0,0,0,0,0,0,0,0,0,0,0,0,0,0,0,0,0,0,0,0,0,0,0,0,0,0,0,0,0,0,0,0,0,0,0,0,0,0,0,0,0,0,0,0,0,0,0,0,0,0,0,0,0,0,0,0],"sum_hessian":[7.512E3,7.511E3,1E0,6.212E3,1.299E3,5.895E3,3.17E2,1.274E3,2.5E1,5.248E3,6.47E2,1.48E2,1.69E2,1.5E2,1.124E3,8E0,1.7E1,8.38E2,4.41E3,6.15E2,3.2E1,9.9E1,4.9E1,1.61E2,8E0,2.2E1,1.28E2,5.3E2,5.94E2,7E0,1E0,9E0,8E0,3.81E2,4.57E2,2.8E1,4.382E3,9.4E1,5.21E2,1.6E1,1.6E1,8.6E1,1.3E1,4.1E1,8E0,1.09E2,5.2E1,3E0,5E0,2.1E1,1E0,4.3E1,8.5E1,1.86E2,3.44E2,2.36E2,3.58E2,4E0,3E0,4E0,5E0,4E0,4E0],"tree_param":{"num_deleted":"0","num_feature":"10","num_nodes":"63","size_leaf_vector":"1"}},{"base_weights":[1.03677824E-1,5.133502E0,-6.658091E-2,4.3183067E-1,2.8631327E1,-5.7281094E0,1.8818118E-1,-1.1692301E0,3.560719E1,1.3827185E1,5.6194515E1,-3.3662338E0,-1.4687785E1,2.4213524E1,2.4739884E-2,2.4223616E0,-7.919052E0,5.075046E1,-1.1596181E1,3.8347063E0,3.1430176E1,1.9981342E1,4.0555506E0,-4.6002502E0,9.015601E0,-2.7730737E0,-1.9548794E1,1.3007697E1,3.635616E1,-3.4218152E0,2.8428677E-1,9.063163E0,-2.5684009E0,1.9470034E1,-1.4624911E1,9.140754E0,2.5865726E1,-4.1475222E-1,-4.8035297E0,1.3616735E0,9.551498E-1,3.3587402E1,1.8022705E0,-3.9507551E0,-6.906883E0,6.3811707E0,-6.6262875E0,-4.033265E1,-7.1196513E0,6.5374427E0,1.8130152E1,4.4141865E1,8.237309E0,-2.2370718E0,-2.7070932E1,2.2941458E1,-7.744211E-2,5.003727E0,-1.6438377E0,2.2614603E-1,-2.2730582E0,-3.1988475E0,2.9240366E1,-4.9840345E0,4.6138253E0,-1.4712525E-2,4.922875E-1,5.1967974E0,1.1649799E1,1.1457065E0,-1.4447392E0,-1.0856912E0,-2.3485098E0,-1.2576979E1,-2.2324266E0,-4.5426307E0,8.248151E0,5.6577644E0,-1.6018144E0,6.44931E0,1.7352903E1,-1.2749635E-1,3.0164301E0,-1.0728389E0,3.8394318E0,-2.1192833E1,-3.3129132E0,4.6049204E0,3.6808395E1,1.3130695E-1,-7.190436E-1],"categories":[],"categories_nodes":[],"categories_segments":[],"categories_sizes":[],"default_left":[0,0,0,0,0,0,0,0,0,0,0,0,0,0,0,0,0,0,0,0,0,0,0,0,0,0,0,0,0,0,0,0,0,0,0,0,0,0,0,0,0,0,0,0,0,0,0,0,0,0,0,0,0,0,0,0,0,0,0,0,0,0,0,0,0,0,0,0,0,0,0,0,0,0,0,0,0,0,0,0,0,0,0,0,0,0,0,0,0,0,0],"id":17,"left_children":[1,3,5,7,9,11,13,15,17,19,21,23,25,27,29,31,33,35,37,39,41,-1,-1,43,-1,45,47,49,51,53,55,57,59,61,63,-1,-1,-1,-1,-1,65,67,-1,69,-1,-1,71,73,75,77,-1,79,81,83,85,87,89,-1,-1,-1,-1,-1,-1,-1,-1,-1,-1,-1,-1,-1,-1,-1,-1,-1,-1,-1,-1,-1,-1,-1,-1,-1,-1,-1,-1,-1,-1,-1,-1,-1,-1],"loss_changes":[6.4342607E3,2.7165482E4,1.0484026E4,1.1643118E4,1.5953008E4,6.5741504E3,2.7313756E4,4.8192188E3,7.021833E3,4.8046055E3,5.3191836E3,1.0406668E4,3.7104287E3,5.922299E3,6.182262E3,4.3318237E3,1.2957795E4,2.4084219E3,1.1316159E2,3.419284E1,3.4664355E2,0E0,0E0,2.7927139E3,0E0,1.993851E3,1.159582E4,7.5832563E3,4.452742E3,1.3500219E4,5.2675887E4,6.2937017E3,1.2536522E3,3.3943453E4,3.5967285E3,0E0,0E0,0E0,0E0,0E0,3.52389E0,9.513086E1,0E0,1.5911487E3,0E0,0E0,3.673993E1,5.774238E2,8.746863E3,3.6129404E3,0E0,4.0307734E3,9.873331E1,9.347201E3,1.5282273E4,7.460383E4,7.5604307E3,0E0,0E0,0E0,0E0,0E0,0E0,0E0,0E0,0E0,0E0,0E0,0E0,0E0,0E0,0E0,0E0,0E0,0E0,0E0,0E0,0E0,0E0,0E0,0E0,0E0,0E0,0E0,0E0,0E0,0E0,0E0,0E0,0E0,0E0],"parents":[2147483647,0,0,1,1,2,2,3,3,4,4,5,5,6,6,7,7,8,8,9,9,10,10,11,11,12,12,13,13,14,14,15,15,16,16,17,17,18,18,19,19,20,20,23,23,25,25,26,26,27,27,28,28,29,29,30,30,31,31,32,32,33,33,34,34,40,40,41,41,43,43,46,46,47,47,48,48,49,49,51,51,52,52,53,53,54,54,55,55,56,56],"right_children":[2,4,6,8,10,12,14,16,18,20,22,24,26,28,30,32,34,36,38,40,42,-1,-1,44,-1,46,48,50,52,54,56,58,60,62,64,-1,-1,-1,-1,-1,66,68,-1,70,-1,-1,72,74,76,78,-1,80,82,84,86,88,90,-1,-1,-1,-1,-1,-1,-1,-1,-1,-1,-1,-1,-1,-1,-1,-1,-1,-1,-1,-1,-1,-1,-1,-1,-1,-1,-1,-1,-1,-1,-1,-1,-1,-1],"split_conditions":[3.6E1,3.2E1,6.7E1,2.415E3,1E0,1.55E3,7.4E1,3E0,1E0,1.075E3,1.766E3,1.535E3,4.1E1,1E0,1.14E2,1.7E1,1E3,3.195E3,3.031E3,1.014E3,1.62E3,1.9981342E1,4.0555506E0,4E0,9.015601E0,1E0,5.1E1,1E0,3.494E3,2.2E3,1.4E2,1.505E3,3E1,7E2,1.95E3,9.140754E0,2.5865726E1,-4.1475222E-1,-4.8035297E0,1.3616735E0,1.025E3,1.325E3,1.8022705E0,4.1E1,-6.906883E0,6.3811707E0,1.641E3,2.24E3,1E0,2.15E3,1.8130152E1,1E0,3.638E3,1E0,1E0,1E0,1E0,5.003727E0,-1.6438377E0,2.2614603E-1,-2.2730582E0,-3.1988475E0,2.9240366E1,-4.9840345E0,4.6138253E0,-1.4712525E-2,4.922875E-1,5.1967974E0,1.1649799E1,1.1457065E0,-1.4447392E0,-1.0856912E0,-2.3485098E0,-1.2576979E1,-2.2324266E0,-4.5426307E0,8.248151E0,5.6577644E0,-1.6018144E0,6.44931E0,1.7352903E1,-1.2749635E-1,3.0164301E0,-1.0728389E0,3.8394318E0,-2.1192833E1,-3.3129132E0,4.6049204E0,3.6808395E1,1.3130695E-1,-7.190436E-1],"split_indices":[8,8,8,0,3,0,8,9,4,0,0,0,8,3,8,8,0,0,0,0,0,0,0,9,0,3,8,7,0,0,8,0,8,0,0,0,0,0,0,0,0,0,0,8,0,0,0,0,7,0,0,4,0,5,3,3,7,0,0,0,0,0,0,0,0,0,0,0,0,0,0,0,0,0,0,0,0,0,0,0,0,0,0,0,0,0,0,0,0,0,0],"split_type":[0,0,0,0,0,0,0,0,0,0,0,0,0,0,0,0,0,0,0,0,0,0,0,0,0,0,0,0,0,0,0,0,0,0,0,0,0,0,0,0,0,0,0,0,0,0,0,0,0,0,0,0,0,0,0,0,0,0,0,0,0,0,0,0,0,0,0,0,0,0,0,0,0,0,0,0,0,0,0,0,0,0,0,0,0,0,0,0,0,0,0],"sum_hessian":[7.512E3,2.45E2,7.267E3,2.05E2,4E1,3.12E2,6.955E3,1.97E2,8E0,2.7E1,1.3E1,2.48E2,6.4E1,4.6E1,6.909E3,1.29E2,6.8E1,6E0,2E0,1.8E1,9E0,1E1,3E0,2.4E2,8E0,1.9E1,4.5E1,2.5E1,2.1E1,4.83E2,6.426E3,5.5E1,7.4E1,1.3E1,5.5E1,5E0,1E0,1E0,1E0,1.4E1,4E0,8E0,1E0,2.33E2,7E0,2E0,1.7E1,1.6E1,2.9E1,2.3E1,2E0,1.6E1,5E0,4.61E2,2.2E1,1E2,6.326E3,3.6E1,1.9E1,4.5E1,2.9E1,1E1,3E0,5.2E1,3E0,2E0,2E0,3E0,5E0,2.3E1,2.1E2,6E0,1.1E1,1.5E1,1E0,2.4E1,5E0,1.1E1,1.2E1,7E0,9E0,1E0,4E0,4.24E2,3.7E1,5E0,1.7E1,9.4E1,6E0,5.177E3,1.149E3],"tree_param":{"num_deleted":"0","num_feature":"10","num_nodes":"91","size_leaf_vector":"1"}},{"base_weights":[9.4258554E-2,5.8342606E-1,-1.3717328E0,-1.6440746E-1,4.887701E0,-1.2779453E0,-2.6639795E1,8.044975E-1,-3.9968617E0,4.6703865E1,2.7775948E0,-4.210241E0,1.1379585E0,-4.499151E-3,7.2068696E0,-2.9264886E0,-3.6289875E1,1.4389331E1,1.1271179E2,1.2221972E0,2.695801E1,-2.7191677E0,-1.850919E1,-3.6964662E-2,3.6671604E1,1.0005593E0,-2.8795083E0,2.7651505E0,2.5202492E1,-1.9635875E0,-1.43225E1,-2.9010843E1,-7.817062E1,5.072857E1,-5.493918E0,4.4119488E1,-1.5246119E1,-3.8970897E0,9.366314E0,5.9797913E1,-1.4570871E1,-3.744241E0,9.473269E0,-8.202999E0,-4.7074062E1,7.161941E0,-1.9852873E0,1.0723779E2,2.024058E1,-9.6469076E-4,4.1281567E0,-4.6302357E-1,-6.1576705E0,1.0200783E0,-1.01373415E1,2.269101E1,4.762746E0,-4.809779E-1,-1.0841013E1,-4.7227445E-1,-7.270188E0,-1.24227705E1,-3.455905E0,-2.8362883E1,-4.3580523E0,-3.1578052E0,3.422651E1,-3.1997142E0,1.3139761E1,-1.8206301E0,2.6133707E0,-1.8283612E0,5.3882203E0,-2.0535446E1,2.761708E1,-3.9492512E-1,-2.9423084E1,3.2789642E-1,-2.1295056E0,4.1700706E0,-6.3118587E0,-1.7873372E0,-2.1100544E1,-1.5886286E1,-7.0643373E0,5.762905E-1,1.577274E1,-2.544134E-1,-5.7288747E0,3.1311924E0,8.8686035E1,1.699768E1,-1.9971344E0],"categories":[],"categories_nodes":[],"categories_segments":[],"categories_sizes":[],"default_left":[0,0,0,0,0,0,0,0,0,0,0,0,0,0,0,0,0,0,0,0,0,0,0,0,0,0,0,0,0,0,0,0,0,0,0,0,0,0,0,0,0,0,0,0,0,0,0,0,0,0,0,0,0,0,0,0,0,0,0,0,0,0,0,0,0,0,0,0,0,0,0,0,0,0,0,0,0,0,0,0,0,0,0,0,0,0,0,0,0,0,0,0,0],"id":18,"left_children":[1,3,5,7,9,11,-1,13,15,17,19,21,23,25,27,29,31,33,35,37,39,41,43,45,47,49,51,53,55,57,59,61,63,65,67,-1,-1,69,71,73,75,77,79,81,83,85,87,89,91,-1,-1,-1,-1,-1,-1,-1,-1,-1,-1,-1,-1,-1,-1,-1,-1,-1,-1,-1,-1,-1,-1,-1,-1,-1,-1,-1,-1,-1,-1,-1,-1,-1,-1,-1,-1,-1,-1,-1,-1,-1,-1,-1,-1],"loss_changes":[5.3884873E3,1.8135979E4,1.5301811E4,1.7830691E4,7.345955E4,1.3315896E4,0E0,1.9853045E4,3.3387836E4,8.369877E4,2.986713E4,1.8051012E4,4.304489E4,9.838917E3,3.430086E4,1.027574E4,7.18259E3,2.0509879E4,8.050591E4,3.1222172E4,6.633392E4,9.659039E3,2.3165455E4,1.4025983E4,3.6092113E4,3.2314953E4,2.0763094E4,8.148075E3,3.878178E4,1.0617893E4,9.185677E3,5.595121E3,2.7945742E3,4.0011676E4,5.3108945E3,0E0,0E0,1.2648221E4,3.851093E4,1.18005836E5,2.4221092E4,1.1543452E4,8.397199E3,7.9509346E3,1.6581797E3,5.0595727E4,1.5298288E4,1.0632752E5,2.7805133E4,0E0,0E0,0E0,0E0,0E0,0E0,0E0,0E0,0E0,0E0,0E0,0E0,0E0,0E0,0E0,0E0,0E0,0E0,0E0,0E0,0E0,0E0,0E0,0E0,0E0,0E0,0E0,0E0,0E0,0E0,0E0,0E0,0E0,0E0,0E0,0E0,0E0,0E0,0E0,0E0,0E0,0E0,0E0,0E0],"parents":[2147483647,0,0,1,1,2,2,3,3,4,4,5,5,7,7,8,8,9,9,10,10,11,11,12,12,13,13,14,14,15,15,16,16,17,17,18,18,19,19,20,20,21,21,22,22,23,23,24,24,25,25,26,26,27,27,28,28,29,29,30,30,31,31,32,32,33,33,34,34,37,37,38,38,39,39,40,40,41,41,42,42,43,43,44,44,45,45,46,46,47,47,48,48],"right_children":[2,4,6,8,10,12,-1,14,16,18,20,22,24,26,28,30,32,34,36,38,40,42,44,46,48,50,52,54,56,58,60,62,64,66,68,-1,-1,70,72,74,76,78,80,82,84,86,88,90,92,-1,-1,-1,-1,-1,-1,-1,-1,-1,-1,-1,-1,-1,-1,-1,-1,-1,-1,-1,-1,-1,-1,-1,-1,-1,-1,-1,-1,-1,-1,-1,-1,-1,-1,-1,-1,-1,-1,-1,-1,-1,-1,-1,-1],"split_conditions":[5.39E2,4.36E2,4.977E3,3.57E2,4.51E2,6.26E2,-2.6639795E1,3.2E2,4E0,1E0,2.2E3,2.18E3,2.415E3,2.69E2,4E0,4E0,4E0,2E0,1E0,1E0,5.17E2,4E0,1E0,6.55E2,2.536E3,2.45E2,2.6E3,4.146E3,3.37E2,2.63E3,2E0,2E0,4.146E3,1E0,1E0,4.4119488E1,-1.5246119E1,5.11E2,2E0,4.54E2,3E0,1.155E3,6.02E2,6.02E2,1E0,6.54E2,1.805E3,1E0,6.49E2,-9.6469076E-4,4.1281567E0,-4.6302357E-1,-6.1576705E0,1.0200783E0,-1.01373415E1,2.269101E1,4.762746E0,-4.809779E-1,-1.0841013E1,-4.7227445E-1,-7.270188E0,-1.24227705E1,-3.455905E0,-2.8362883E1,-4.3580523E0,-3.1578052E0,3.422651E1,-3.1997142E0,1.3139761E1,-1.8206301E0,2.6133707E0,-1.8283612E0,5.3882203E0,-2.0535446E1,2.761708E1,-3.9492512E-1,-2.9423084E1,3.2789642E-1,-2.1295056E0,4.1700706E0,-6.3118587E0,-1.7873372E0,-2.1100544E1,-1.5886286E1,-7.0643373E0,5.762905E-1,1.577274E1,-2.544134E-1,-5.7288747E0,3.1311924E0,8.8686035E1,1.699768E1,-1.9971344E0],"split_indices":[8,8,0,8,8,8,0,8,1,3,0,0,0,8,9,9,9,9,4,2,8,1,3,8,0,8,0,0,8,0,1,9,0,4,5,0,0,8,9,8,9,0,8,8,7,8,0,2,8,0,0,0,0,0,0,0,0,0,0,0,0,0,0,0,0,0,0,0,0,0,0,0,0,0,0,0,0,0,0,0,0,0,0,0,0,0,0,0,0,0,0,0,0],"split_type":[0,0,0,0,0,0,0,0,0,0,0,0,0,0,0,0,0,0,0,0,0,0,0,0,0,0,0,0,0,0,0,0,0,0,0,0,0,0,0,0,0,0,0,0,0,0,0,0,0,0,0,0,0,0,0,0,0,0,0,0,0,0,0,0,0,0,0,0,0,0,0,0,0,0,0,0,0,0,0,0,0,0,0,0,0,0,0,0,0,0,0,0,0],"sum_hessian":[7.512E3,5.633E3,1.879E3,4.8E3,8.33E2,1.878E3,1E0,3.832E3,9.68E2,3.9E1,7.94E2,8.48E2,1.03E3,3.403E3,4.29E2,9.38E2,3E1,2.7E1,1.2E1,7.47E2,4.7E1,7.69E2,7.9E1,9.98E2,3.2E1,2.522E3,8.81E2,3.45E2,8.4E1,8.66E2,7.2E1,2.7E1,3E0,9E0,1.8E1,1E1,2E0,4.59E2,2.88E2,2.6E1,2.1E1,7.1E2,5.9E1,5.9E1,2E1,2.12E2,7.86E2,5E0,2.7E1,2.339E3,1.83E2,8.2E2,6.1E1,3.4E2,5E0,1.2E1,7.2E1,8.58E2,8E0,3.2E1,4E1,1.5E1,1.2E1,2E0,1E0,5E0,4E0,1.7E1,1E0,3.92E2,6.7E1,1.03E2,1.85E2,5E0,2.1E1,1.9E1,2E0,2.91E2,4.19E2,5.2E1,7E0,5.8E1,1E0,1.5E1,5E0,1.91E2,2.1E1,7.38E2,4.8E1,4E0,1E0,1.1E1,1.6E1],"tree_param":{"num_deleted":"0","num_feature":"10","num_nodes":"93","size_leaf_vector":"1"}},{"base_weights":[7.136313E-2,5.7680264E-2,1.5428559E1,-5.8562726E-1,9.94854E-1,-6.820284E0,-2.8021428E-1,-1.3834926E0,1.8196634E0,-5.6534505E0,-2.540082E1,9.410862E-1,-2.0987647E0,-1.1390967E1,-1.2420897E0,5.768106E0,6.525523E-1,-6.3583126E0,2.3953657E1,6.3673663E-1,1.7441513E1,3.0970345E0,-4.2415314E0,-2.374214E0,1.7374169E0,4.9006333E0,7.897566E1,6.849872E0,-4.354252E-1,-1.2901382E0,-3.7100537E0,-3.8901675E-1,9.177131E0,2.6149607E-1,-3.9346397E0,1.9983693E0,7.538313E1,-2.6925895E-1,7.2089353E0,-1.0335796E0,-9.255645E0,-2.9188088E-1,-2.7848666E0,9.6100384E-1,-2.2520962E0,5.9199643E-1,4.107007E0,3.822538E1,-3.5817752E0,4.7761822E-1,2.3410194E1,-1.0714365E0,8.7551534E-1],"categories":[],"categories_nodes":[],"categories_segments":[],"categories_sizes":[],"default_left":[0,0,0,0,0,0,0,0,0,0,0,0,0,0,0,0,0,0,0,0,0,0,0,0,0,0,0,0,0,0,0,0,0,0,0,0,0,0,0,0,0,0,0,0,0,0,0,0,0,0,0,0,0],"id":19,"left_children":[1,3,-1,5,7,9,11,13,15,17,-1,19,21,-1,23,25,27,29,31,33,35,37,39,41,43,45,47,49,51,-1,-1,-1,-1,-1,-1,-1,-1,-1,-1,-1,-1,-1,-1,-1,-1,-1,-1,-1,-1,-1,-1,-1,-1],"loss_changes":[5.2765186E3,4.5294985E3,0E0,8.481053E3,6.0013433E3,1.8415406E4,9.436768E3,4.0294946E3,1.046162E4,4.4513022E3,0E0,1.2754556E4,1.9017824E4,0E0,2.655438E3,3.2508848E4,1.1829404E4,2.44448E3,8.77573E2,8.0782993E3,1.1428361E5,4.174656E4,2.5511379E4,5.509123E3,2.9647534E3,1.3172109E4,2.794602E4,9.7935195E4,1.571327E4,0E0,0E0,0E0,0E0,0E0,0E0,0E0,0E0,0E0,0E0,0E0,0E0,0E0,0E0,0E0,0E0,0E0,0E0,0E0,0E0,0E0,0E0,0E0,0E0],"parents":[2147483647,0,0,1,1,3,3,4,4,5,5,6,6,7,7,8,8,9,9,11,11,12,12,14,14,15,15,16,16,17,17,18,18,19,19,20,20,21,21,22,22,23,23,24,24,25,25,26,26,27,27,28,28],"right_children":[2,4,-1,6,8,10,12,14,16,18,-1,20,22,-1,24,26,28,30,32,34,36,38,40,42,44,46,48,50,52,-1,-1,-1,-1,-1,-1,-1,-1,-1,-1,-1,-1,-1,-1,-1,-1,-1,-1,-1,-1,-1,-1,-1,-1],"split_conditions":[8.902E3,1E0,1.5428559E1,1E0,1.188E3,1.895E3,3E0,8E0,3E0,1.681E3,-2.540082E1,2.415E3,2.47E2,-1.1390967E1,3.86E2,1.95E3,1.64E2,3E0,2.28E2,2.18E3,6.87E2,1.86E2,2.282E3,1.14E3,1E0,1.356E3,2.1E3,1.1E2,2E0,-1.2901382E0,-3.7100537E0,-3.8901675E-1,9.177131E0,2.6149607E-1,-3.9346397E0,1.9983693E0,7.538313E1,-2.6925895E-1,7.2089353E0,-1.0335796E0,-9.255645E0,-2.9188088E-1,-2.7848666E0,9.6100384E-1,-2.2520962E0,5.9199643E-1,4.107007E0,3.822538E1,-3.5817752E0,4.7761822E-1,2.3410194E1,-1.0714365E0,8.7551534E-1],"split_indices":[0,3,0,9,0,0,9,8,1,0,0,0,8,0,8,0,8,1,8,0,8,8,0,0,5,0,0,8,9,0,0,0,0,0,0,0,0,0,0,0,0,0,0,0,0,0,0,0,0,0,0,0,0],"split_type":[0,0,0,0,0,0,0,0,0,0,0,0,0,0,0,0,0,0,0,0,0,0,0,0,0,0,0,0,0,0,0,0,0,0,0,0,0,0,0,0,0,0,0,0,0,0,0,0,0,0,0,0,0],"sum_hessian":[7.512E3,7.511E3,1E0,4.454E3,3.057E3,2.07E2,4.247E3,7.87E2,2.27E3,2.05E2,2E0,2.541E3,1.706E3,2E0,7.85E2,5.17E2,1.753E3,2.01E2,4E0,2.496E3,4.5E1,4.98E2,1.208E3,5.69E2,2.16E2,5.12E2,5E0,2.61E2,1.492E3,1.51E2,5E1,1E0,3E0,2.455E3,4.1E1,4.4E1,1E0,4.19E2,7.9E1,1.174E3,3.4E1,4.74E2,9.5E1,1.87E2,2.9E1,3.85E2,1.27E2,3E0,2E0,2.44E2,1.7E1,7.71E2,7.21E2],"tree_param":{"num_deleted":"0","num_feature":"10","num_nodes":"53","size_leaf_vector":"1"}},{"base_weights":[6.478841E-2,3.9482987E0,-6.666568E-2,5.964324E-1,2.0693083E1,-5.4116774E0,7.447861E-2,-8.470366E-1,2.6262205E1,5.7066016E0,3.469418E1,-2.2226293E0,-1.4347719E1,6.214222E-2,1.311427E1,-2.2521462E0,1.5101204E1,4.2133118E1,-1.2095153E0,2.5342743E0,7.1687417E0,3.9993233E1,2.9215698E0,2.4362042E0,-3.7544057E0,-9.735276E0,-5.4065733E0,-8.8406014E-1,6.14697E-1,1.1417208E0,-1.0255161E1,-2.982101E0,7.009665E1,7.4044557E0,2.2026407E1,2.3729095E0,-9.925557E0,9.074554E-1,5.5569E-1,2.5151443E1,1.5117398E1,1.3849326E1,-4.0269417E-1,-3.1077268E0,-1.3906653E1,-1.3527995E0,-8.9347725E0,-1.0923408E0,3.6051855E0,2.7513077E0,-3.6632293E-1,1.1120903E0,-1.7341262E0,-1.2662994E0,-8.158238E0,9.54352E0,-6.594199E0,2.8274193E1,-3.53302E-1,-4.2403567E-1,-4.042465E0,-6.387787E-2,3.4172288E-1,1.2287795E1,4.4350734E0,5.170843E0,1.0764565E0,2.619599E0,-6.640574E-1,-1.3064969E-1,-1.5858532E0,-5.6954784E0,-7.50021E-1,1.0355222E0,-1.2861757E0,-1.2012874E0,-5.438506E0,5.0147266E0,-3.4689605E-1,3.978133E0,-1.0215892E0,6.2605995E-1,3.5109525E0,2.5534194E0,-2.0337257E-1],"categories":[],"categories_nodes":[],"categories_segments":[],"categories_sizes":[],"default_left":[0,0,0,0,0,0,0,0,0,0,0,0,0,0,0,0,0,0,0,0,0,0,0,0,0,0,0,0,0,0,0,0,0,0,0,0,0,0,0,0,0,0,0,0,0,0,0,0,0,0,0,0,0,0,0,0,0,0,0,0,0,0,0,0,0,0,0,0,0,0,0,0,0,0,0,0,0,0,0,0,0,0,0,0,0],"id":20,"left_children":[1,3,5,7,9,11,13,15,17,19,21,23,25,27,-1,29,31,33,35,37,-1,39,-1,41,43,-1,45,47,49,51,53,55,57,-1,-1,-1,59,-1,61,63,-1,65,67,69,71,73,75,77,79,81,83,-1,-1,-1,-1,-1,-1,-1,-1,-1,-1,-1,-1,-1,-1,-1,-1,-1,-1,-1,-1,-1,-1,-1,-1,-1,-1,-1,-1,-1,-1,-1,-1,-1,-1],"loss_changes":[3.8356743E3,1.3794724E4,5.483512E3,7.654081E3,8.404928E3,5.2971367E3,3.8099287E3,4.4261787E3,4.8469746E3,1.1511855E3,2.387588E3,1.001091E3,7.7558564E3,3.7026926E3,0E0,4.92788E3,1.6121023E4,2.0100576E3,4.759254E2,1.6761414E1,0E0,1.3561328E3,0E0,1.1396014E3,6.461327E2,0E0,4.7419873E2,2.4452832E3,9.372481E3,2.294324E3,5.4046875E3,9.292669E3,6.9962812E3,0E0,0E0,0E0,7.159061E1,0E0,2.48454E0,8.6952E2,0E0,1.8142151E2,4.9902838E2,5.7982947E2,3.0009094E2,2.5447636E2,7.4332666E2,2.8631453E3,7.8969653E3,8.344397E3,8.484081E3,0E0,0E0,0E0,0E0,0E0,0E0,0E0,0E0,0E0,0E0,0E0,0E0,0E0,0E0,0E0,0E0,0E0,0E0,0E0,0E0,0E0,0E0,0E0,0E0,0E0,0E0,0E0,0E0,0E0,0E0,0E0,0E0,0E0,0E0],"parents":[2147483647,0,0,1,1,2,2,3,3,4,4,5,5,6,6,7,7,8,8,9,9,10,10,11,11,12,12,13,13,15,15,16,16,17,17,18,18,19,19,21,21,23,23,24,24,26,26,27,27,28,28,29,29,30,30,31,31,32,32,36,36,38,38,39,39,41,41,42,42,43,43,44,44,45,45,46,46,47,47,48,48,49,49,50,50],"right_children":[2,4,6,8,10,12,14,16,18,20,22,24,26,28,-1,30,32,34,36,38,-1,40,-1,42,44,-1,46,48,50,52,54,56,58,-1,-1,-1,60,-1,62,64,-1,66,68,70,72,74,76,78,80,82,84,-1,-1,-1,-1,-1,-1,-1,-1,-1,-1,-1,-1,-1,-1,-1,-1,-1,-1,-1,-1,-1,-1,-1,-1,-1,-1,-1,-1,-1,-1,-1,-1,-1,-1],"split_conditions":[3.6E1,3.2E1,5.1E1,2.37E3,3E0,1.435E3,8.902E3,1E0,1E0,1E0,1.766E3,1E0,2E0,1.089E3,1.311427E1,3E0,1.229E3,2.807E3,2E0,1.014E3,7.1687417E0,1E0,2.9215698E0,4.1E1,1E0,-9.735276E0,1.641E3,1E0,3E0,1.505E3,1.337E3,9.08E2,1E0,7.4044557E0,2.2026407E1,2.3729095E0,3.031E3,9.074554E-1,1.025E3,1.165E3,1.5117398E1,1.255E3,7E2,6.8E2,4.1E1,1E0,4.1E1,6.8E1,2.86E2,1.48E3,7.7E1,1.1120903E0,-1.7341262E0,-1.2662994E0,-8.158238E0,9.54352E0,-6.594199E0,2.8274193E1,-3.53302E-1,-4.2403567E-1,-4.042465E0,-6.387787E-2,3.4172288E-1,1.2287795E1,4.4350734E0,5.170843E0,1.0764565E0,2.619599E0,-6.640574E-1,-1.3064969E-1,-1.5858532E0,-5.6954784E0,-7.50021E-1,1.0355222E0,-1.2861757E0,-1.2012874E0,-5.438506E0,5.0147266E0,-3.4689605E-1,3.978133E0,-1.0215892E0,6.2605995E-1,3.5109525E0,2.5534194E0,-2.0337257E-1],"split_indices":[8,8,8,0,1,0,0,7,6,3,0,6,9,0,0,9,0,0,9,0,0,3,0,8,2,0,0,5,1,0,0,0,2,0,0,0,0,0,0,0,0,0,0,0,8,6,8,8,8,0,8,0,0,0,0,0,0,0,0,0,0,0,0,0,0,0,0,0,0,0,0,0,0,0,0,0,0,0,0,0,0,0,0,0,0],"split_type":[0,0,0,0,0,0,0,0,0,0,0,0,0,0,0,0,0,0,0,0,0,0,0,0,0,0,0,0,0,0,0,0,0,0,0,0,0,0,0,0,0,0,0,0,0,0,0,0,0,0,0,0,0,0,0,0,0,0,0,0,0,0,0,0,0,0,0,0,0,0,0,0,0,0,0,0,0,0,0,0,0,0,0,0,0],"sum_hessian":[7.512E3,2.45E2,7.267E3,2.05E2,4E1,1.86E2,7.081E3,1.95E2,1E1,2E1,2E1,1.38E2,4.8E1,7.08E3,1E0,1.8E2,1.5E1,6E0,4E0,1.8E1,2E0,1.6E1,4E0,3.4E1,1.04E2,1.5E1,3.3E1,2.61E3,4.47E3,1.27E2,5.3E1,1.2E1,3E0,5E0,1E0,2E0,2E0,1.4E1,4E0,8E0,8E0,6E0,2.8E1,9.9E1,5E0,1.6E1,1.7E1,2.495E3,1.15E2,1.406E3,3.064E3,9.3E1,3.4E1,4E1,1.3E1,4E0,8E0,2E0,1E0,1E0,1E0,2E0,2E0,2E0,6E0,4E0,2E0,4E0,2.4E1,4.5E1,5.4E1,3E0,2E0,6E0,1E1,1.2E1,5E0,8E0,2.487E3,4.8E1,6.7E1,1.31E3,9.6E1,1.03E2,2.961E3],"tree_param":{"num_deleted":"0","num_feature":"10","num_nodes":"85","size_leaf_vector":"1"}},{"base_weights":[5.8916174E-2,-6.4719714E-2,3.8383944E0,4.781557E-1,-9.3523955E-1,2.6139135E0,6.037641E1,2.5928894E-1,7.2643E0,-6.517916E-1,-1.6173073E1,4.0323973E0,-5.1960537E1,7.468197E0,4.080139E1,4.4035015E-1,-8.301751E0,4.284075E0,1.0752092E2,-3.2261946E0,2.4117297E-1,-3.678189E1,-1.6905483E0,2.0132107E1,6.217617E-1,-1.7960567E1,-1.8630685E0,-4.16031E0,5.7608185E0,3.5587287E-1,2.0300903E1,-2.1983221E1,-4.0787144E0,-9.502511E0,1.3647059E1,6.410617E1,9.0308124E-1,-3.6092503E0,3.5594994E1,-5.1381493E0,9.346655E-1,-4.7848305E1,4.556603E1,-1.6397387E1,2.296173E1,3.2722275E1,-2.0910625E1,-7.3449345E0,8.018875E0,-1.131842E-1,5.2214277E-1,3.365769E1,-4.190254E0,-9.167944E0,3.4721484E0,7.284985E0,-2.5984075E0,2.354259E0,-8.528517E0,1.7752825E1,2.1669784E0,3.771149E-1,2.92717E-2,-4.6503863E-1,-1.9989686E0,-4.000441E0,4.937607E1,-7.969885E-1,-4.182505E0,4.7031565E0,1.4407739E-1,-1.9943551E0,-1.8626373E1,2.3952215E1,-3.4475007E0,1.0962785E1,-9.574891E0,1.6208248E1,-9.400752E0,2.1657896E1,1.1981324E0,-9.44735E0,1.1147132E1,-4.131094E0,5.420039E0,1.6021957E1,1.0325605E0],"categories":[],"categories_nodes":[],"categories_segments":[],"categories_sizes":[],"default_left":[0,0,0,0,0,0,0,0,0,0,0,0,0,0,0,0,0,0,0,0,0,0,0,0,0,0,0,0,0,0,0,0,0,0,0,0,0,0,0,0,0,0,0,0,0,0,0,0,0,0,0,0,0,0,0,0,0,0,0,0,0,0,0,0,0,0,0,0,0,0,0,0,0,0,0,0,0,0,0,0,0,0,0,0,0,0,0],"id":21,"left_children":[1,3,5,7,9,11,13,15,17,19,21,23,25,27,-1,29,31,33,35,37,39,41,43,45,47,-1,-1,-1,-1,49,51,53,55,57,59,-1,61,63,65,67,69,71,73,75,77,79,81,83,85,-1,-1,-1,-1,-1,-1,-1,-1,-1,-1,-1,-1,-1,-1,-1,-1,-1,-1,-1,-1,-1,-1,-1,-1,-1,-1,-1,-1,-1,-1,-1,-1,-1,-1,-1,-1,-1,-1],"loss_changes":[3.5109165E3,3.4389673E3,1.6318853E4,6.655058E3,1.2061435E4,1.8324164E4,1.8991064E4,6.7356196E3,4.136959E4,6.311123E3,